100 100 
0 -0.003036499 0.003398884 -0.0022365982 0.0035511423 -0.0023682886 0.0028535072 0.0010502404 -0.0031990474 0.0024368363 0.00032130536 -0.0010078275 -0.0030778968 0.0023336313 0.004827708 -0.0026267068 0.0021588863 0.002258561 -0.0035853065 0.0027331882 0.0019202838 0.0012539588 0.0007105572 -0.0040963963 -0.0011608051 -0.0011674105 -0.00014395872 0.00066148443 -0.0042908173 -0.0012160873 0.002574223 -0.0011081111 -0.00075446954 -0.0033762055 -0.0030664962 0.0004272624 -0.0015882712 -0.0042639244 -0.0019286161 0.0017180131 0.0017154105 -0.00024852576 0.000583482 -0.0041155107 0.0041375626 0.00418521 0.0017138659 0.0034589227 -0.0024769448 0.003257079 -0.00026689237 -0.001894515 -0.0010410701 0.0025196858 -0.00030552642 -0.0018630666 0.0032781754 9.105215e-05 -0.0009811535 -0.001670476 -0.0001996248 0.0009785341 0.00076570455 -0.0027450484 -0.0028949277 0.0039936826 -0.0036606973 -0.0006323736 -0.0042854804 -0.0007216339 0.0041080005 0.0026634592 -0.0046096556 -0.00018306077 0.0039968453 -0.00010030391 0.004589715 -0.002686237 -0.00116638 -0.0023492563 -0.003282247 0.0046497146 0.004494072 0.00025734445 -0.0045228247 -0.0035745602 -0.0016473865 0.004252447 -0.0004991363 0.0025776257 -0.0015358031 0.00037920615 0.00100601 0.0040611234 -0.0010653804 -0.0028578953 0.0024985122 -0.0036729586 0.00081171794 -0.0043502063 0.00016305503 
1 0.0030862857 -0.0005785902 0.0021804194 -0.00048150308 0.004897423 -1.2118369e-05 -0.0030928438 0.0037854128 -0.004124292 0.0012428565 0.003692397 0.00066547934 0.0029150853 -0.004434743 -0.0038844333 0.0005675829 -0.0028130198 -0.003309465 0.002429305 0.0013095653 0.002606594 0.00173089 -0.00013411464 -0.0038437573 -0.0016242675 0.0016580564 0.004478189 -0.002180882 0.002388029 -0.0018002563 0.0013527763 0.000226147 -0.00095753 0.0033963667 -0.0029181426 0.002862134 -1.0109041e-05 0.00083579076 0.003116942 -0.0036863373 0.0025767665 0.004482153 -0.0013834804 -0.0047642533 -0.00056551676 -0.0035094148 0.00074125966 0.0013819896 -0.0043856273 0.0015024389 0.0015486116 0.0029856386 -0.00013646623 0.0027108556 0.004547449 0.003915148 0.0019999305 0.002773535 -0.00027130358 0.003644364 0.002804529 0.00062846066 -0.0012430823 -0.002361219 0.004828427 0.0017929645 0.00421861 0.00021654088 -6.1513856e-05 -0.004499619 0.0034055458 0.0028147046 -0.0020042276 0.0018999237 0.0049414765 0.0011108792 -0.0034257788 -0.0041563082 -0.0027552806 -0.004894449 -0.0018266821 0.004329196 -0.00483395 -0.0005949545 0.0021946197 0.00477722 -0.0009901538 0.0015222821 -0.004099619 -0.0019726884 -0.00015560584 0.0017033685 0.00308152 -0.002682724 -0.0032496816 0.0040109614 -0.0016584969 0.0018977411 -0.0024375182 0.0025540567 
2 0.00062061613 0.0039938726 0.0014096559 0.0036195684 0.0022436208 0.0003376142 -0.00036091683 -0.0008920375 0.0035985485 0.0014558379 0.0023698825 0.004095207 0.0021090452 -0.0047629955 0.0041179005 0.0044032587 -0.0029026002 -0.0012326504 -0.0004997896 -0.0005117734 -0.0033639413 -0.0021505875 0.004218026 -0.0014732671 0.004366719 -0.0022576093 0.0031435397 0.0017485903 -0.00093963044 -0.0049907397 -0.0042525567 0.0007162662 0.0016775094 -0.00450203 -0.0044456576 0.0029353518 -0.0025665115 0.004373694 0.0035680803 0.0027240985 -0.00046695163 -0.004681794 -0.00033302885 -0.0037645667 0.004003403 -0.0040082578 -0.0032268278 -7.848209e-05 -0.0020092183 0.004227453 0.004761072 0.0028012753 -0.0033715842 -0.0049750796 0.0020511365 -0.0005914788 0.003573928 0.0036670063 0.0024416195 0.00449735 0.0027695065 -0.00011911336 4.1800085e-05 -0.0032033634 -0.0019005365 0.0011923462 0.0049653873 -0.0041243415 -0.0035316616 -0.001334229 0.004871457 0.00454441 0.0004952927 -0.0009441227 0.0031186119 -0.0042933635 -0.0015262384 -0.0024055308 0.0044167098 -0.003103628 0.003491031 0.003551417 0.0039195456 -0.00051648216 -0.002420584 0.00013074558 -0.00430395 0.0019177259 0.002179223 0.003351341 0.001488714 -0.0010938083 -0.0036161477 -0.00016567064 -0.0011790793 -0.0042587523 0.0007027113 0.0031256732 0.0017398568 -0.0022124767 
3 -0.004434409 -0.0032325648 -0.003847428 -0.00022017583 -0.0011612009 0.0037944708 0.0044658566 0.0022342084 -0.002055012 0.0045142137 -0.0046725483 0.0001260899 0.0010005017 0.0048539545 -0.00081270747 0.0045426292 -0.0009092204 -0.0013844848 -0.0046398863 -0.0029807335 0.0043750564 0.0038176617 0.0017055962 0.000127187 0.004267145 0.0030283788 -0.0012079198 0.0008778577 0.0040193275 -0.004352099 0.004287998 0.0024474268 -0.004058136 -0.0020020795 0.0019378196 0.003935756 0.0047041746 -0.003891877 -0.00010443386 -0.002953704 -0.0022081274 0.0018964587 0.0036050407 -0.0022031122 -0.0007815752 0.0031177094 -0.002965842 0.0005184971 0.0017965352 0.002779665 -0.0009839581 0.0029372927 5.8208127e-05 0.0017350782 -0.004546989 -0.0015034454 0.0039638616 -0.004394479 0.00041337684 0.0024260534 0.0038045812 0.0039519574 -0.0020261938 -0.0014590579 0.0030487431 -0.00190013 -0.00019863108 -0.0036716885 -0.0037842114 -0.002563085 -0.0033498954 -0.0014994692 0.0025926102 0.004123145 -0.0035892378 0.000108809676 0.00457218 -0.0017368621 0.0041164923 -0.00022241333 0.0002826983 0.0030060625 0.003108915 -0.0012269395 -0.0018788255 0.0029519172 4.1410327e-05 -0.0028316146 -0.0041215615 0.0035481704 -0.0028097986 -0.0010122843 0.0018195952 0.0029028337 -0.0037103968 -0.00485194 -0.0039082128 -0.004852912 -0.0010281447 0.00072011957 
4 0.003375533 -0.0018637704 0.0022328142 0.0027659843 -0.0003774655 -0.0030503292 -0.003654825 -0.001402067 0.0039222343 0.0024900287 0.0019626967 0.0022122217 -0.0042222044 -0.0049482808 0.0033148983 -0.0009033163 -0.004568591 0.0032293024 0.0044874568 0.0046341494 0.0043678135 -0.0037197364 0.004874085 0.0030741608 -0.0023937838 0.004971195 0.0027682423 -0.00017275801 0.00071126735 0.003129676 -0.003499295 -0.0002934062 0.0022185147 0.003865718 0.00043170946 0.0037032487 -0.004317557 -0.004956303 0.00033026515 0.0017796177 -0.004575615 -0.0037759226 0.00080878614 0.004370912 0.004285018 -0.0013244187 -0.0045940904 -0.0049998164 0.002716601 0.0018122173 0.0019007204 -0.002958172 0.0012715603 -0.004264991 0.0020925156 0.004864307 -0.0015747487 0.0026633427 -0.004318218 0.0007903399 -0.0031222438 0.0016673217 -0.0032877228 7.1362592e-06 -0.003002367 -0.00260292 -0.0023583162 0.0023264433 0.003058482 -0.0042022513 0.0045466153 -0.0033193356 -0.0025053609 -0.0006972151 0.0048210006 0.002967557 -0.0038900548 -0.0034093666 0.003752131 0.0021566157 0.003983211 0.0004907823 -0.0018427323 0.0026003597 0.002082827 -0.0048970366 -0.0018144422 0.003446946 -9.1046095e-05 -0.0028222036 -0.0038495718 0.0030652136 -0.004484909 -0.0008902983 0.004009203 0.0041656084 -0.004173286 -0.0022041958 0.0008070795 -0.0037126825 
5 -0.0032576225 0.0035799854 -0.0037449687 -0.0041410727 0.00417252 0.0010869778 0.0019182293 0.00035981694 0.0014367034 0.0031902744 0.0046447925 -5.0153118e-05 0.0047157565 0.0025795843 0.00057178596 0.0025384165 0.00431618 3.735954e-05 0.0021065525 0.0006489642 0.0048663653 -0.0018487703 -0.003519762 -0.0031713068 0.0019623907 0.0014761556 0.0036889184 0.00054656994 -0.00027404306 0.0016948413 8.1011094e-05 -0.0024152468 0.00341063 -0.001012886 0.00045016035 -0.00022712536 -0.0005919342 0.0048657116 -0.0047610966 -0.0047167316 0.0034146523 0.0011993921 0.0047115292 0.0017304695 0.0007452648 0.0015090732 0.00026535196 0.0013687606 -0.0039979434 0.0038554808 -0.0046719564 -0.002975707 -0.0015779929 -0.001124121 0.00017942954 -0.0036380105 -0.002976839 0.0028941594 -0.0007166099 -0.0002465886 -0.002001884 -0.0010739132 0.0049479725 0.003859315 -0.0016271938 8.345861e-05 -0.0016151052 -0.0015791189 0.0035183579 -0.0013114214 0.0035462473 -0.0012086921 0.0026564915 -0.0032674284 -0.0005984823 -0.002938968 -0.0010773437 -0.0039028155 0.0024222801 -0.0009512501 -0.003938516 -0.004924225 0.00026731612 0.004071678 -0.0028943275 5.104672e-05 -0.0034411107 -0.00024729688 -0.00039856834 0.0010525393 0.00073557114 0.0005665547 -0.0008600713 -0.0018439977 -0.0028066915 -0.0035069953 0.0042384407 -0.0030877255 0.0012033284 -0.0015652524 
6 0.0005746125 -0.0035137362 -0.00037095184 0.00021761935 0.0020162445 0.00028103124 -0.004406455 0.002475562 -0.00258018 -0.0017186832 0.00074232137 -0.0010185177 -0.0005598054 -0.0028651839 -0.002116496 0.0015148432 0.0013140957 -0.0007779342 0.0024671094 0.0038691387 -0.0037540928 -0.004381216 0.0049857525 -0.004752515 -0.00048159854 0.00044600712 0.0011277501 -0.0038551134 0.0017848592 0.0048676487 -0.00384193 -0.0013000988 -0.004786843 0.0036146035 -0.003511733 0.004012326 -0.00039885752 -0.0019585395 0.001735121 0.0020619873 -0.001099522 -0.0028872536 0.003976683 -0.0030860887 -0.0040508476 -0.00391918 -0.0003374298 0.001355472 0.0025222818 0.0038180295 -0.004474478 -0.0015063321 0.004576224 -0.004499577 -0.00023859274 -0.0032360225 0.0033699414 -0.00033620046 0.001973967 0.0034915395 0.00400413 -0.0049938154 -0.001075034 0.0016673403 0.0017197519 -0.00096513797 -0.00046068477 -0.0027096176 -0.0011654084 -0.0043273596 -0.00061865104 0.002216457 -0.004500673 0.0015709195 0.0025726263 -0.0020246946 -0.0018666422 0.0013481164 0.0018253336 0.0045933463 0.0034421673 0.004887497 0.001320743 -0.00012939703 -0.00017249212 0.0046805907 0.00214069 0.0043947725 -0.004136531 -0.0020104796 -0.003791905 -0.004671133 0.0047514075 0.0027013617 -0.00021206401 -0.00036249822 -0.0031462389 -0.0008824533 -0.0021353364 -0.002702725 
7 -0.0030749124 0.001431982 -0.0023680578 0.00040159095 0.0025163507 -0.0025399863 -0.0039224047 -0.003446859 0.00027987733 -0.0025924556 -0.00075193774 -0.004998452 0.0009820312 0.0015867115 -0.00096467277 0.004127616 -0.0035428242 0.004453688 -0.0016696411 -0.0013083171 0.00075486023 0.0027072774 0.0017401064 0.0011143368 -0.00480729 0.0036529573 -0.0036399262 -0.0032350689 0.0020433362 -0.0032744776 0.0031689825 -0.0047938805 -0.0010914393 -0.0010095797 -0.0009083231 0.004820206 -0.0033225953 -8.314056e-05 -0.0042454093 0.0026744907 -0.00228747 0.004108102 -0.0019088387 0.003474703 -0.004486904 0.0040849783 0.0035116114 0.00018846197 0.0037136693 0.0005506319 -0.004225512 0.0018006274 0.004401588 -0.0024276453 0.0035162438 -0.0025468438 -0.0041339383 6.8583526e-05 0.00371134 0.0019590138 -0.002872064 -0.0030532968 0.0035632672 -0.00280873 0.002415636 -0.0007451577 4.672166e-05 -0.00031960942 -0.0021219265 0.0040945774 0.0012401529 0.0013644667 -0.0025149737 -0.003067699 0.004360158 -0.0017737788 -0.0037064087 -0.001052428 -0.00054812664 0.003844196 0.0008499152 -0.0024825996 0.00014412822 -0.002969734 -0.0007140641 -0.0045645577 -0.0022926235 -0.0016829406 0.0012705247 0.0017917645 -0.0015395635 0.001995524 0.0047868947 -0.0012792896 0.0008759396 -0.003597129 0.0039674584 -0.00467174 0.000866103 -0.0041322066 
8 -0.0042989324 -0.0015722173 0.0022075386 0.0029638382 0.003701047 -0.0037376862 0.003785682 0.001486286 -0.0036951106 0.0028367098 -0.001170479 0.0003065709 -0.0045184633 -0.0004121065 0.0022812537 0.004285817 -0.0005659913 0.0010561724 0.0046382174 0.0029827515 -0.004621977 0.002783557 0.0029723784 -0.0021900206 -0.00395914 0.0010403623 0.0038210638 -0.0019988995 -0.0006535477 0.0011972827 0.0030761333 0.0031720316 -0.003894919 0.0037465002 -0.0025563813 0.002062167 0.0002596951 -0.0022006796 0.003931281 0.0047335457 0.0015483336 -0.001347143 0.004338911 0.0020631687 -0.004122453 -0.0031721627 -0.0033529913 -0.0034820312 0.00011645071 0.00027603842 -0.0045275185 -0.004538258 0.001278047 -0.00032986002 -0.0043863 0.0038815802 0.0043750443 -0.0023214673 -0.00404918 0.0032959832 0.0026908494 -0.0034336941 0.0029964484 -0.0024659852 -0.0044092475 -0.00030717673 -0.0021896153 0.0037129493 -0.0034329556 -0.004318187 -0.00026042294 0.00022526458 0.00048144674 0.0020630294 0.0026286892 -0.0030857276 0.0034255143 -0.00013014255 0.00097102765 -0.0020346795 -1.4501158e-05 -0.0046400563 0.0017544474 -0.0029576868 0.0013921247 -0.0016352618 -0.0042380863 0.00015269453 -0.0026752423 0.0048085675 -0.00039661722 -0.0020937598 -0.0013908315 0.004591126 -0.0026080078 -0.0038317114 -0.0028491647 6.269943e-05 0.0046517747 -0.0011244153 
9 2.976507e-06 0.0025025583 -0.001289088 0.0015564589 -0.0038791704 0.0014587617 -0.0042763776 1.8779188e-05 -0.0016723955 0.004681196 -0.0012820608 0.0047316123 0.001488701 -0.00048139133 0.0011682534 -0.00095804315 -0.0010045846 -0.0032215775 -0.0016796321 -0.00093875127 0.0017966796 -0.0041720257 -0.00097151706 0.0031265859 -0.003364203 0.0031993333 0.0021218765 0.0010696584 0.0014165915 -0.0039445674 0.0002771644 -0.002156887 -0.0027357428 -0.0018398212 0.002721638 0.004713865 0.0020693159 -0.00022314489 -0.0016546934 0.0025614635 -0.0021502418 -0.0018141335 0.0013195951 -0.0033353209 0.0016441946 0.0027466444 -0.0044094943 0.002639437 -0.0003011031 -0.0016989624 0.004116743 0.00467321 0.00045514712 0.00073558046 0.0011746441 0.0048033902 -0.002290359 0.004240836 -0.0017463434 -0.0014612626 0.0044885874 0.0010102885 0.0023541534 0.0007564188 -0.0011304044 0.004346763 -0.004975564 0.0029649874 0.004493803 0.0019907444 0.0018433183 0.0037237806 -0.004421281 0.0035626898 -0.00029425276 0.00048671104 0.0040771207 0.0011591013 -0.0019975228 -0.0040720967 0.0046359636 -0.0033831887 0.0028415453 -0.0017810178 -0.0013878697 -0.001137678 0.0009510112 0.0040795263 -0.004642843 0.00068003125 -0.0047860323 -0.0038724171 0.0018331851 -0.00015728967 -0.0030820132 -0.0008538342 0.004751158 0.0038139941 -0.0012642241 0.0048955614 
10 0.0008873381 -0.0001361235 0.00087672705 -0.0013817067 -0.0013636614 0.0015264386 -0.0017092882 0.001770068 0.0006622239 -0.0036248933 -0.0015262573 -0.0045070252 -0.0010564644 0.0011401526 0.0030870624 0.0041827 -0.0003678631 -0.00341861 -0.0009853351 0.0025642305 0.004222557 -0.00012552273 -0.00244049 -0.0048020394 -0.00418848 -0.0046718805 -0.0019963079 -0.0022941916 0.0027651335 -0.0041867243 0.0029184613 -0.0034753964 0.0029015187 -0.0009871377 -0.0029034817 0.0015179752 -0.0042029163 0.0022514728 0.0019153301 -0.00016558403 0.0028271545 0.0013815938 0.0015113126 -0.0041136513 0.004623384 -0.0045606927 -0.0044229636 -0.0047915033 -0.0048480025 0.0016217739 -0.0040046433 0.0027282964 0.0048224106 -0.001809492 -0.00063162483 0.0009359978 0.0012993943 -0.0007535084 0.0042050024 0.00027707405 0.0018650116 0.00087341527 -0.0023723 -0.0024412344 0.0020311694 0.0049694115 0.0018586298 0.0019483552 -0.00063978275 -0.001469152 -0.0038118232 -0.0017037992 -0.003153467 -0.0010366659 -0.00015049381 0.004526292 -0.004381447 -0.0047656433 0.00043777004 -0.0024864005 0.0016813106 0.00014797738 0.0031949123 0.0037261667 -0.0029340207 0.0039499393 -0.0037250463 -0.0011691719 -0.00022300053 0.0019289707 0.0042504044 0.0008480549 0.004739333 -0.0016894722 -0.0020228075 0.0010064389 -0.004124009 0.003988065 -0.0010532779 -0.0037049586 
11 -0.0024772375 -0.003083059 -0.00094294595 -0.0023476528 -0.000470242 -0.003810556 0.002292899 0.0008341558 -0.0039720647 -0.00046745222 0.004624172 -0.004845137 0.0040045884 -0.0028911035 0.002878122 -0.0035594571 0.0029376876 0.0042927703 -0.003951066 -0.00064768735 0.0048986096 -0.0040973937 0.0011749421 -0.0020768498 -0.0008181883 0.0026193107 0.0040184036 -0.00060777646 0.00045122718 0.0042976616 -0.003729384 -0.0022644275 -0.00028712442 0.004138143 0.0045305826 -0.003955731 0.0023101768 -0.004060992 0.0014885259 -0.0047478597 0.002868344 -7.789023e-05 0.0011437344 0.00062140217 -0.0014917813 -0.0040441407 -0.002259439 0.0026629074 0.0018851585 0.00080906274 0.0032612402 -0.001987701 0.0046819467 -0.004036936 0.0022037919 0.00016253348 0.00414313 -0.003989822 -0.0009097634 -0.0012299682 0.003325317 0.0035304828 0.0030443165 0.004568572 -0.003795709 -0.0035461653 -0.002992549 -0.0014763176 0.0008580289 0.0005884995 0.00030103046 0.003410698 0.0006694244 0.0011740648 0.0031813849 0.0022549722 -0.0031957394 0.0022445372 -0.0025147486 0.0013114363 0.0026529375 -0.00019435212 -0.0045165014 0.0022033756 0.0047172485 -0.002374484 0.002403703 0.0011698687 0.0044725407 0.003537165 0.004341595 -0.0017408687 0.0011160374 0.0014324659 -0.0033400583 0.0012660311 -0.00023523904 0.002185875 0.0008246852 0.001401932 
12 0.0038125748 -0.0014245105 -0.00038057566 0.0036993744 -0.004190646 -0.0012685703 -4.202919e-05 -0.002093836 0.0022595967 0.00055038696 -0.0028122377 -0.00094351964 0.004287393 0.004109716 -0.00025778078 0.004591942 0.0008315621 0.003055133 -0.002445808 -0.000814463 -0.00010956172 -0.002167751 0.001634608 0.003869025 -0.0021532087 0.00051569706 0.0020440272 0.0030528195 -0.0038200873 -0.004982934 -0.00037955772 -0.0025986205 -0.002986838 -0.004415308 -0.0014250916 0.0027851542 -0.0024768948 -0.0031454116 -0.0024420011 0.0030905548 -0.0036987662 0.002265647 -0.002947473 -0.0031640779 0.0012336737 0.0042073866 0.0020782948 0.004001284 0.0029655928 -0.0026976555 -0.001896637 -0.002831046 -0.0017106473 0.004682593 0.0011910833 0.0017892253 0.0035323845 -0.003276599 0.0010710526 -0.00017928518 0.0014552171 -0.0017325454 0.0028801728 -0.003961527 -0.0034352075 0.0035136063 0.00058725756 0.0017897934 -0.0030373351 -0.0018961423 -0.001624208 0.004637869 -0.004341129 -0.00014270842 -0.0038622962 0.0010676803 -0.0039023822 -0.0015696948 -0.002191283 -0.0012646662 -0.00087843975 0.0036351848 -0.0045330375 -0.0018673074 0.0044143517 0.0044605816 0.0014597522 -0.0043827635 -0.00200324 0.0011535599 0.0024195053 0.0008936189 0.0016295658 -0.0030440753 0.0041408474 -0.002013427 -0.004413784 0.001469838 -0.0018276549 0.002865715 
13 -0.0027062874 0.0013829959 -0.0028523838 -0.0021164715 -0.0036256523 0.0007454371 -0.0036720084 0.0012132926 0.0031666942 -0.0021029417 0.00041445158 0.00077359844 -0.0009180312 0.001625332 -0.000547756 0.0036963979 0.0048153717 0.0011373819 0.00049645547 -0.0018586253 0.0022482676 -0.0031937396 -0.001443231 0.0013355869 -0.002125277 -0.0045567714 -0.001606328 0.0001809597 0.0020047398 0.002447588 0.0008578687 0.001846354 -0.00057775807 0.00012639584 -0.00295389 0.0040288754 -0.0016861134 0.004790783 0.0032701623 0.0020522107 -0.0017781002 0.001756419 -0.00020669354 0.0011487044 0.0039298413 -0.0010031015 0.0003161896 0.0042492403 -0.0015538121 0.00042070495 0.004476104 -0.0032270139 -0.0014484494 -0.0013144636 0.00036479812 -0.00450009 0.00048001483 0.0018819659 0.0035817688 0.0036527086 -0.0028969038 -0.00057283044 0.00199921 -0.0008329316 0.002284002 0.0049612783 0.002134358 0.0019682483 0.003658656 -0.0018362396 -0.0038126968 9.55821e-05 -0.0012353598 0.002191015 0.0038585616 -0.0032091546 -0.001115415 -0.0044554714 -0.004330583 -0.003297954 0.0042230943 -0.0015289742 0.0027291756 -0.0009774463 -0.0012672769 -0.003912379 0.0013662367 -0.0008417214 0.0007215906 0.0033179643 -5.8505684e-06 -0.002862432 0.0014403067 0.004964863 0.004116956 -0.003376999 -0.0021826988 0.0035296837 -0.0014076305 0.0033347793 
14 0.0026691137 0.0042949487 0.00082352106 0.004043106 0.0015352666 -0.004351913 -0.0037469475 0.0040783947 0.0030647023 -0.004946097 0.004933171 0.003536975 0.0006315205 -0.0017649359 0.0008444451 -0.00089420984 0.00089465873 -0.002261555 -0.0027607817 0.0006131651 0.002696969 0.0038914662 -0.0032433998 0.0040200753 0.0015352415 -0.0023369587 0.0016376576 -0.004709466 0.00064238673 0.0002471446 0.0033854367 0.0014818688 -0.0046712896 0.00034426525 -0.0040843524 -0.0022311746 0.0006079613 -0.0049692737 0.0042678583 0.004203854 0.0003740727 0.0022491221 0.00094696647 -0.0007862379 0.0039745355 -0.004281458 -0.0034712641 -0.0032498813 -0.00337562 0.0016851136 0.0033114478 0.0010660114 -0.001114499 0.0034227623 0.0047050985 0.00058317324 0.0020589675 -0.002591083 0.002307428 0.0041154493 0.00018478697 -0.004193642 0.0035252152 0.0018261326 -0.0018038172 -0.0018898237 -0.0023893875 -0.0040890267 0.00028476352 -0.003244099 -0.004470502 -0.00053843204 5.0265342e-05 0.003907279 -0.0015625835 -0.0017726934 -0.0015532218 0.001207808 -0.002954235 0.0044249585 -0.0017382258 0.002139649 0.00048360927 -0.004621342 0.0032960651 -0.0013458813 0.00051020226 0.00014774688 0.0044822507 0.002329376 -0.0016908771 -0.0022623849 0.0027115499 0.0013838857 -0.002782775 0.004009544 -0.004890404 -0.004929422 -0.00020349445 -0.0033403449 
15 0.0020609326 0.003925341 -0.00318666 -0.002663343 0.0018735654 -0.0036581557 -0.0006684256 0.0034913635 -0.0028313403 0.004289088 -0.0011540758 -0.00366463 -0.0014127945 0.004736528 -0.004847165 -0.004629495 0.0008095922 -0.0011645912 -0.0045492183 0.0042148987 -0.002214617 -0.0004633651 0.0039875824 0.00028961198 -0.0010405015 0.00047616847 0.0006471765 0.0044390857 0.0044869278 -0.004203382 0.0043645753 0.002543022 0.0025597368 5.6525692e-05 -0.0041762786 0.0025748126 0.00061470317 0.0014887024 -0.00044770725 5.738018e-05 0.0003551119 -5.322229e-05 -8.131284e-05 0.004234447 -0.00015763147 -0.002605747 0.0011855955 0.0049942657 0.00042434828 -0.0024215488 0.0007684841 -0.0015388143 0.002420445 0.00037216023 -0.00025442196 0.003006572 0.0010463749 0.0021861428 0.0010982817 0.00068622595 0.002708308 -0.003226032 -0.0006549889 0.0018699849 0.003989391 0.0022120648 -0.0005247928 0.002570935 -7.4930955e-05 -0.0033059842 -0.0011240768 0.00048530102 -0.002803406 0.0012518205 -0.0044401404 -0.003061987 0.0019323621 0.00032135844 0.0018442618 0.00033286493 -0.0038029556 -1.8598977e-05 0.003947573 0.003430198 0.004419526 0.00029612286 0.00046926504 -0.0049129683 0.0005710586 0.002278341 -0.0035022665 -0.0032010786 0.0031518443 0.0047471393 -0.0023965554 -0.004960007 0.0004869937 -0.004068268 0.0042576697 -0.004439451 
16 -0.0031107585 -0.0031461245 -0.0019211757 0.0016620453 0.0015761019 -0.0015929877 0.0011224877 0.000528865 -0.0021581547 0.0035150899 0.0030600363 0.0030676266 -0.0036181104 0.0034471853 0.0039421115 0.0034440756 0.0012640329 -0.0015454513 0.0043031676 -0.0029429484 0.0015310925 0.0023324536 -0.0001273132 -0.00030660164 -0.002103561 0.0014697677 0.00054219645 0.00034665596 -0.002335351 0.004671896 -0.00027703028 0.00032667536 0.0043632006 -7.9695135e-05 0.0028743232 0.0010838746 -0.0007333099 -0.0047158203 0.0017270399 -0.0037838703 -0.0031242734 0.0047154035 0.0014183326 0.0046602115 0.0022896794 9.740703e-05 0.0043339804 0.004208915 0.0010391497 -0.004547128 0.004067854 -0.00059775217 0.0014529661 -0.001797887 -0.0039789085 -0.0033436255 -0.0011487645 -0.0049954983 -0.0020308602 0.0011603832 -0.0031602746 -0.003843998 5.257735e-05 -0.0018879545 0.0015111156 -6.109057e-05 -0.004259034 0.002237774 -0.0034976613 0.0015833825 -0.00376864 0.003591396 -0.0041216956 0.0015959046 0.0024816059 -0.0015562861 -0.00439597 -0.0025043183 -0.0024413646 0.004329915 0.0041138306 0.0026598703 0.0033477442 0.0034917528 -0.00013245363 0.0003950172 0.0025006444 -0.002178366 0.003197182 -0.0029193843 -0.004603273 0.0046589533 0.0012978939 0.003678102 -0.0014050661 0.0037017353 -0.0018111716 0.0034065545 0.0035722787 0.0018005697 
17 0.004431364 0.0036844602 -0.0010613734 -0.0046076444 0.0027789664 0.0029205242 0.0020737527 0.0011178618 -0.002978443 0.0014894344 0.0035818769 0.0039236816 0.0013694675 0.00071697775 -0.0014998608 0.0040847454 0.00088760117 -0.0028780024 0.0028403914 0.0033660112 0.0021578223 -0.0029932987 0.00011528982 -0.004072778 0.0005926327 -0.0039896993 0.0005698204 0.00015603146 -0.0033981346 -0.0006029522 -0.0010878961 0.0027841753 -0.0031050812 -0.0026270305 0.0025382722 -0.0019230884 -0.0012945621 0.0003803838 -0.0010485547 -0.004118056 -0.003450503 8.158758e-05 -0.0010582767 0.0045347176 -0.0033172155 0.00306499 0.0017738002 -0.004378967 -0.001179999 0.004946188 -0.0037414604 -0.004178366 0.0018498604 -0.002807694 -0.0008393503 -0.0031484417 0.003646247 -0.002936936 0.002058711 -0.004020747 0.0024244399 -0.0020047342 0.0030638073 -0.0008186386 -0.00399703 -0.0017263691 0.0014772806 0.0014709425 0.0036670435 -0.0037832642 -0.0031350225 -0.0020626783 0.0021580942 -0.00197244 -0.00076239463 0.0021984465 0.00073842565 0.002494073 -0.00017174426 -0.0013720791 -0.0024689655 0.004981666 0.0040899646 -0.0018005746 -0.00010559801 0.0040245056 -2.344139e-05 -0.0044846903 0.0038244398 0.0040563717 -0.003305279 0.0027706632 -0.00060271146 0.0014971108 0.0049565984 -0.004498184 -0.00018197251 -0.0012374592 -0.0046909396 0.00037565827 
18 -0.0040057423 0.0033182558 0.0027668416 -0.0029386221 -0.0034142612 -4.594447e-05 -0.0007077432 -0.001845777 -0.0012171459 0.0027844734 0.0010081683 0.003204979 -0.0015694296 0.0044355076 -0.00067712134 0.0006305361 0.0023194342 0.0025389222 0.0049806256 -0.0010833717 -2.1934044e-05 -0.0036956114 0.0025883187 0.0002318602 -0.0015450472 0.0025927653 -0.003211425 -0.00023207534 0.0035622725 0.0032084873 -0.0038758956 -0.0021668887 -0.0020617258 -0.0018698554 0.002306804 -0.0039996933 -0.0009643049 0.0020774025 5.7956204e-05 -0.002679714 0.0010848171 -0.0034785247 -0.0009853262 0.00029366277 -0.00349305 0.0028570574 -0.0036169218 0.0004915786 -0.004928994 -0.0041717724 -0.0026392012 0.0005272664 0.0022521103 -0.0029792488 -0.0026731603 0.0039009657 0.0042844303 0.0010594209 0.0040753623 -9.9678524e-05 0.0042091953 -0.004190015 -0.0014796448 0.0047282623 -0.003446902 -0.0044279033 -0.0036261189 0.0017398782 -0.0045970175 0.0038198093 -0.0028836934 0.0036614677 0.003225034 -0.0019159333 0.002567322 -0.0017267268 -0.0008022338 0.0011874055 -0.004184785 -0.0018836914 0.004751956 0.0012999959 -0.0019070553 -0.0025975162 0.0049409242 -0.0021462636 0.004007885 -0.0049913228 3.668666e-05 -0.0018890172 -0.0041215406 -0.0027936238 -0.0027514058 0.0031988993 0.0037686229 -0.00012855884 -0.0033187282 -0.0027704465 -0.0029685348 0.004040678 
19 0.0014764024 -0.004972973 0.0039614895 0.0010578847 0.0014453745 -0.0042048893 -0.0042110435 0.0002320963 -0.00029051956 -0.000822084 0.0049362965 -0.0030960618 -0.004217715 0.0047578216 0.000566883 0.0014078552 4.1542575e-05 -0.004616995 -0.0021103083 -0.0044747856 -0.0022126525 0.003995101 -0.0016335619 -0.0024333356 0.0048894743 -0.003889131 -0.002751386 -0.0021128089 0.0017870255 0.004614829 0.0034504589 -0.0019705992 -0.0046125613 -0.002321456 0.001159355 -0.0036971562 0.0048345616 -0.0025044137 -0.0042553693 -0.0044066724 -0.0013191456 0.0013253815 0.0035909507 -0.0019413554 0.0018332587 0.00018616254 -0.00170525 -0.0009439136 0.0021167803 -0.0032066233 -0.0007953532 0.0011615288 0.0036578728 0.004883078 0.0022202116 0.0028365944 -0.0046561686 -0.003014704 -0.0013633554 0.0034219595 0.0023212582 0.0026217666 0.0027126758 -0.0038494663 -0.0002898001 -0.0008370583 -8.913316e-05 0.0026290761 0.0026822924 -0.0036869543 0.0021847864 0.0035152873 0.0011326438 0.004717527 -0.0018436413 -0.0037579644 -0.0026898957 -0.00055703335 0.0032903496 0.0037826141 -0.0027244603 -0.002887241 -0.0043867123 0.0010411013 0.0032210704 0.0014521843 -4.6142843e-05 -0.0032985425 0.0049428185 0.00470006 0.0013199584 -0.0012203867 -0.0012661968 0.0026325793 0.002767012 0.0005335184 0.0024966346 -0.00025662594 0.0018379609 0.00016384246 
20 -6.215507e-05 -0.003853694 0.002235557 -0.0029347318 0.0007914514 7.632002e-05 0.0028615063 0.0041103177 -0.004929405 0.0015928983 0.002688589 0.00086770905 -0.0040306267 -0.004914028 0.0017330823 0.0036587287 -0.0029937935 -0.0014186918 -0.0038384772 0.0030384725 -0.0004847902 0.0020558513 -0.002798918 -0.00016289065 -0.0009670323 -0.0036358237 -0.004178561 -0.002979924 -0.00018291315 0.0046293344 0.004181101 -0.003877934 -0.0042100353 0.002140821 0.0015295018 -0.0048742406 -0.0009008865 0.004918225 0.0006314139 -0.004977122 -0.00039688824 0.0010482981 -0.003378592 0.0020344509 0.0022807652 -0.001048638 0.00095774746 -0.0028894613 0.0029141298 0.0015581544 0.0044517256 0.0046520615 -0.0026129882 -0.000962107 -0.00018834695 0.0009249612 -0.0019089293 0.0036077453 0.0013045003 -0.0031836438 -0.004089045 0.004193661 -0.002814644 0.00091433665 0.0019200728 0.004620796 0.0041056834 0.0028738156 0.00013452629 0.0029303562 -0.00081902463 -0.0024838005 -0.00033350475 -0.0028384733 -0.0016681468 0.0006051953 0.00046861125 -0.004988021 -0.0004008049 0.0024377839 -0.0022460872 0.00499353 0.001997312 0.0005737655 0.002453595 0.0013177334 0.0011503678 -0.0004814486 0.0019229292 0.003946392 0.0013607424 -0.0040559387 0.0026298952 0.00028990768 -0.0028294818 3.4424476e-05 -0.0003439812 0.0020904522 8.962769e-05 -0.0007395386 
21 0.0022665435 0.0027075256 -0.004227117 -0.002149015 -0.0026057786 0.0030152556 -0.0019092548 -0.0029283522 -0.0031518035 0.0039866315 -0.0047910367 -0.0038357687 0.003627955 0.0001593763 -0.0027274096 -0.002674539 -0.0013525938 -0.0034557586 0.0010633804 -0.00030740444 -0.0044176173 0.0018777507 -0.0013857197 -0.0041897483 -0.0031175548 -0.0014430028 0.00190316 0.0010893052 0.0016221963 0.0017071757 -0.0047085183 -0.00026017008 0.0004172041 0.004048964 0.004258801 0.0019752616 -0.0039816285 -0.004100018 0.0037176404 0.0024189223 -0.0016251684 -0.003187052 -0.0016475648 0.0023819744 -0.0013704789 0.002105867 -0.0008087093 -0.0014819007 0.0013566096 -0.0024829542 0.0045685014 0.00035489025 0.0042780098 0.004012041 0.0033946512 0.0017993664 -0.0022867662 -0.0048803375 -0.0024501388 -0.0038659046 -0.004964018 0.00072922325 0.004408504 0.002216835 -0.0012805038 -0.0022804122 -0.0042609135 -0.001991633 9.353086e-05 0.00094701303 -0.00023165764 0.0048475256 0.004441822 0.0026426916 -0.0019000929 0.00070301397 -0.003062619 -0.0020854652 0.0028513437 -0.0044029704 -0.0008684541 0.0040036514 0.0013012402 0.00024358463 -0.0009994186 0.004122738 -0.00404955 0.0017425762 0.004868743 0.00471445 0.0039047739 -0.002440785 -0.00013979804 -0.0024067925 0.0033815643 -0.004378516 -0.003227098 0.002690624 -0.004588083 -0.0038964818 
22 0.0007135654 0.001812886 0.003941265 -0.004020375 0.002424602 0.0008958853 0.0043396894 0.00067808153 0.0035602525 -0.0033733235 -0.002308551 -0.0021051299 -0.0010831039 -0.0021480757 -0.0022290575 -0.0044916756 -0.0043903743 -0.0022061174 0.0042149285 -0.002106257 -0.0025925094 0.003015534 -0.00029626116 -0.003916803 -0.001856854 -0.0048597376 -0.004329642 0.0043201083 -0.00063709216 -0.0001836624 0.0006968281 0.0030349763 0.0030180523 0.0039827824 0.0017719972 0.0038872324 -9.2270784e-05 -0.0011889804 0.000431031 -0.002579038 -0.004967984 -0.001581195 0.0044109495 0.00073574623 -0.001822663 0.0037493352 -0.0025519705 -0.0006754291 0.0048910314 0.0047518397 0.002652707 0.00044161035 -0.0024420952 0.0041206405 0.0033157337 -0.0002502203 -0.0018897646 -0.0026389384 0.0022066948 -0.0043708137 -0.00037829112 5.9414655e-05 -0.0040081963 0.0017049811 0.0017038258 -0.0042476975 -0.0005543614 0.0027858661 -0.0037063453 -0.0046099974 -0.0017788399 0.0012132009 -0.0027630602 -0.00040622754 -0.0020838063 -0.0040548136 -0.0017671466 -0.002029271 0.0044123977 0.00059736194 0.0043396745 0.0025046002 0.002020793 -0.0016925919 -0.0028216003 -0.0042948816 0.0022567445 0.0023793415 0.004249231 -0.002073831 -0.0002707038 0.0042308485 0.0020261914 0.00440213 0.00146305 -0.0024081282 -0.00016736751 0.0034175646 -0.0037242435 0.004187678 
23 0.001963099 -0.0047228313 -0.004448273 0.0035228617 0.0022757016 -0.0005740826 -0.0027671873 -0.0041625192 -0.0019116348 -0.0013075066 0.003057654 0.0012630434 -0.0007549138 -0.0046535116 0.004658859 -0.0024275375 -0.0028799658 0.00016907277 0.00047384622 0.0006435155 -0.0029030805 0.0017738221 0.0037886696 0.002925424 0.004303706 -0.000115639064 -0.0015236365 0.0033256253 0.0015547913 0.0037946925 0.002858514 -0.001800267 -0.0048434893 0.0025737584 -0.0036773402 0.004099394 -0.0035913396 -0.0026817166 0.0022758776 0.00203748 -0.0040809 -0.00071450835 0.0019854945 0.00030414807 0.0049864585 0.004527618 -0.00047918875 -0.0038699196 -0.0026557713 -0.0017194282 -0.0009774994 -0.0017280721 -0.0038791788 0.0003731735 -0.003616787 0.0046570627 0.0014129183 -0.0046651685 0.0011905949 0.0029021213 0.000437269 0.004777872 0.0012281649 -0.0026625013 -0.00062850956 0.0001973398 -0.0045528025 -0.0037830423 4.325388e-05 -0.004375794 -0.0003644419 -0.0025930868 0.002791463 0.0017187721 -0.002336455 0.004606854 0.0046951678 0.00052080443 0.0008603926 -0.00089929113 -0.0027020276 -0.0029759197 0.002422282 0.00031118048 -0.0036594998 -0.004715601 0.0027008853 -0.0014361495 0.0021010637 0.0028253598 -0.00016837055 -0.004002348 -0.0028646844 0.0027658627 0.001115548 -0.0015256959 0.0016665505 0.004207939 0.0025714207 -0.0049136314 
24 -0.0018524677 -0.0040953592 -0.0015168679 -0.0018766855 0.004761355 -0.0037642443 -0.0045790705 0.000100101344 -0.004205458 -0.0008632266 0.0007332694 0.0037105232 -0.0017569547 0.0008109249 -0.0030320971 -0.004988748 -0.0020009822 -0.0018884039 -0.0017167055 0.0005417005 -0.0018841326 0.0045957277 -0.001511991 -0.0022414392 0.0021514767 -0.00432129 -0.0012048124 0.0025263513 -0.0037259148 0.00035575032 0.0019138292 0.0020499378 0.00083352486 -0.0044089295 0.0011797012 0.0002033459 0.00087101106 -0.0006401087 -0.004121002 0.0045216205 0.0015469352 -0.0020255856 0.0011685896 -0.0009706239 0.0026936578 0.0043701036 0.0017329864 0.0033038864 -0.0020270757 -0.00221691 0.0014734636 -0.0044695884 -0.0007532062 -0.0026076143 0.001323177 0.0041692182 -0.0035636586 -0.00040732138 -0.0037700105 0.0025898307 -0.0024567484 -0.0032787859 0.0026911185 -0.0010807775 -7.732492e-05 0.00092342636 -0.001839485 0.0025787293 0.0011501987 0.004292489 -0.004310709 -0.0010279668 0.0016922886 -0.0042890073 -0.0041687856 0.002020367 0.00020245137 -0.0030516363 6.270548e-05 0.0025175763 -0.00036365632 0.0014305268 0.0044820514 -0.004313727 0.0007437258 -0.002202825 0.002470131 0.0007137968 4.5173336e-05 -0.00115862 -0.0019850384 -0.00048611173 0.0028166445 0.0030260123 0.00074782735 -0.004052444 -0.0024960518 0.0021266174 -0.0049157636 0.00245042 
25 -0.0013141567 0.0043717707 -0.0047499673 0.0025188783 -0.0015667765 -0.003526771 0.001771667 0.00040862244 0.003216913 -0.0033286219 -0.004313917 -0.003943695 -0.004439999 0.0046087196 -0.00067790505 -0.0010736282 -0.00046592532 -0.004548337 0.0038823672 0.0014942978 -0.0022396266 0.0017184298 0.0006552129 -0.0038004494 0.004655267 -3.062887e-05 0.0026998073 0.0036434624 -0.0010739635 -0.003323642 -0.004559283 0.004367751 -0.0049427114 -0.001122266 -0.00072326185 0.0029564137 0.0046715457 -0.00137937 0.0048099104 0.00048605958 -0.0015690946 -0.0003093155 -0.00073827105 -0.003062607 0.0023820824 0.004054657 0.0022052769 0.00045092683 -0.0023378104 -0.004201819 -0.0019054841 -0.0041896114 0.0049393503 -0.004485377 0.004613001 -0.0041340296 -0.0047400934 -0.0028483467 0.004090775 -0.0038726567 0.004631486 -0.0013854252 0.003820872 0.0028243735 -0.00019811885 -0.0006981436 -0.004890857 -0.0021378184 0.0018759989 -0.0027447373 0.002342063 -0.0028289217 -0.0011178618 0.0049278922 0.0026111864 -0.0044831065 0.0015987353 0.0029808953 -0.004083713 0.0041538933 0.0033941623 -0.0009354828 0.00023812987 0.00018944219 0.0005938541 0.002156401 -0.0024883072 -0.001113811 5.486468e-05 -0.0027757573 0.00243088 -0.004893214 4.0160958e-05 0.00088656135 -0.0008138288 0.0013652751 0.00087966025 -0.004625809 -0.0036554043 -0.003679068 
26 -0.0037207233 -0.00018180208 0.00012207823 -0.0024126696 -0.004858399 0.0011224882 0.000796522 -0.0044039646 -0.0014318794 0.0040458627 -0.0009870767 0.0032155756 -0.004142754 0.003283197 0.00043817284 0.0004884964 -0.0012113063 0.0012536454 0.004464534 -0.0014245624 -0.0028863375 0.0029323353 -0.00096612703 -0.0010377639 -0.0021633224 0.0005330681 -0.004094507 0.004602678 -0.0024548166 -0.0030617379 -0.0013480205 -0.0031321459 0.0016491762 0.0025264597 -0.0032112598 -0.004251757 -0.002426473 -0.0017936581 -0.0013677459 -0.00046830578 0.0020663897 -0.00220393 0.002671382 0.0047819223 -0.0019921814 0.00293055 -0.004504864 0.0026970208 -0.0013453888 -0.002710467 -0.0023900717 0.0012517599 0.0017264416 0.0027485816 0.004748186 0.0018243925 0.00056168437 -0.0039064493 0.0015155096 0.0023199702 -0.0043017636 -0.0011486185 -0.00037741847 0.0005036066 -0.001415814 -0.0035570925 0.0031755343 -0.0025802122 -0.00024337042 0.0041149175 0.0043538846 0.0018699346 0.0009709406 -0.000674109 0.0021043331 0.0010385197 0.004071437 -0.0032733534 0.00049963547 -0.0038126868 -0.0030325358 0.0049136635 -0.0028560215 0.0021119062 -0.0008795713 -0.0020469152 -0.00043707807 -0.004303739 0.0032014092 -0.0045154127 -0.0025669043 -0.0006432561 -0.0019471967 0.00073191384 -0.0029586088 -0.0031366735 0.0048946803 0.0046222806 0.004176082 -0.00212071 
27 -0.004371977 -0.0046555526 -0.0014675474 -0.00063707866 0.0020866762 0.0018082452 0.00067905895 -0.0008266843 -0.0046553616 0.0047609974 0.0043142876 0.004608128 -0.0015240991 -0.0043024495 0.003402234 0.0034940233 0.0015579648 0.0043520397 -0.00064309966 -0.0043762964 0.002331764 0.00093732774 0.004992578 -0.0012139201 0.0013488913 -0.0021548986 0.0014964947 0.0024689669 -0.0039070747 -0.0037385053 0.004511959 -0.001679464 0.0017650258 0.0027785897 0.0040610684 -0.004873195 -0.0024070228 -0.0040187365 -0.0024571114 -0.0005701585 0.0019272487 0.0028728712 0.0004970501 5.9363898e-05 0.0018114755 0.0014286507 0.0018322235 -0.0043695467 0.0023727329 0.0048035877 0.0027869665 -0.0042964206 0.0022466956 -0.0016046613 0.002774709 -0.0022760695 -0.0047926353 0.004157615 0.0039920676 0.0031614564 0.0012090183 -0.0027564287 0.0016718782 0.0034757545 -0.0011249918 0.0047798688 -0.0007457603 0.0025155018 -0.0019413114 -0.0016868894 0.0021436065 -0.0020561402 -0.0029898137 -0.0014465726 -0.0004858477 0.0029872824 -0.0024007242 0.00064729946 4.0400773e-05 0.0010588872 0.00082694134 0.0035905298 0.0044496674 0.0018421314 -0.0030909656 0.0033648675 -0.0041349484 0.0032487875 0.0015329975 0.003947245 -0.0009695948 0.0035657827 -0.00020699156 -0.0036093472 0.0023862105 0.0027568773 -0.0010487498 -0.0010715276 -0.0034093105 -0.0030815643 
28 -0.0023789124 -0.0012022613 -0.0012964355 -0.0018621194 0.0008760216 -0.0040174657 -0.00028209388 -0.0030778144 -0.004613324 0.0017181886 -0.00087812776 -0.004491866 0.0028537735 -0.0031036502 0.0002501998 0.0021159714 0.00086565595 -0.0027279984 0.0028918628 -0.0013775902 0.00015689665 -0.0011909192 0.003309615 0.0049142353 -0.0009435909 -0.0028108465 -0.0037466679 -0.0010118117 -9.6482225e-05 0.0038333954 0.001322316 0.0021497277 -0.0032346598 0.003075365 0.0010191202 0.004936398 -0.002192545 0.0012782202 0.0046608467 -0.0048854267 0.0033156322 0.001653248 0.0010712594 -0.00044069113 -0.0023823923 0.0021834224 0.0032085367 -0.002724663 -0.0011978883 -0.004644133 0.0013099746 0.0021437882 -0.0028570741 0.0038912464 -0.0014071821 -0.0025923406 -5.253451e-05 -0.0028640502 0.0012719454 -0.004213138 0.0019050417 -0.0004424136 0.004358628 0.0010175752 -0.0047127544 0.000951231 -0.0038102884 -0.0013995147 -0.00077584246 0.002406892 0.0036946116 0.0014057737 -0.0015857685 0.0030773217 -0.0032314486 -0.002110821 0.0002196217 0.0025331546 0.0048432564 0.0031017195 0.0017324043 0.0035243453 0.003555349 -0.0030248761 0.0035650255 -0.0026779186 -0.0037460611 0.0019652671 -0.0049825353 0.0040640766 -0.0017075895 0.004578486 -0.0011210854 -0.0025555526 0.0010040537 -0.00086167874 0.0022520847 -0.0046732477 -0.0042811176 0.0022479822 
29 0.00019595074 0.0018927432 0.0036585126 -0.0029346042 -0.0035639382 -0.00071757194 0.0036560688 0.0015689647 -0.0016286622 0.0015466851 -0.0025529796 -0.0030045998 0.0013037417 -0.0009017531 -0.00038520107 -0.0034687775 -0.0018776255 0.0019400413 -0.0034324264 0.0011680527 8.052774e-05 -0.0025230658 0.003180801 0.004689616 -3.2288488e-05 0.00067633577 0.002616725 0.0045159264 0.00013340637 -0.0023915183 -0.0042295633 -0.0006685704 -0.00086783944 -0.002618789 -0.0014425742 -0.0021482997 0.004082407 -0.0030585753 -0.0008423752 -0.004110001 -0.0002427334 -0.004607606 -0.0048332177 -0.0015232556 0.0047989087 -0.004657544 0.0037628636 0.0024369834 0.00027775206 -0.0009166277 0.00036660908 0.0016761362 0.0038654925 0.0028943643 -0.0038938392 5.2288175e-05 0.00018225983 0.0003249538 0.00011305977 0.00087496405 -0.0009362721 0.003517393 -0.000114724506 -0.0031491928 0.0005980092 0.0025456548 0.00068819243 0.0005558501 0.0031676516 -2.8342474e-05 0.0037758034 -0.004872448 -0.0013859819 0.0012993244 -0.004245714 -0.004210527 0.0026715882 0.0006217761 0.0011711908 -0.0019276612 0.00494985 -0.0028129935 0.004029194 0.00018815324 0.00030410103 0.0019354997 0.0013270532 0.004656884 -0.0014017893 0.0044072988 0.0015141452 0.0008504391 0.001430708 0.0045068897 0.0038275803 -0.00086611975 0.003680707 0.0032722289 0.0029192744 1.3011508e-05 
30 0.0031524403 0.0047567114 -0.002654066 0.0026681786 0.0027312082 -0.0005985154 -0.0044971667 0.0031412179 0.0009035473 -0.00086961547 0.0047427043 -0.0016934692 0.002967555 -0.0017638004 -0.0014017182 -0.003147314 0.0015325816 0.0013933061 0.003916652 0.004903787 -0.002057612 -0.0021776003 0.0023739645 -0.0046003065 0.0003410913 0.0021938263 0.0041414294 0.0039908513 0.0040169796 -0.002178737 0.0039789565 0.0010176986 -0.0029504888 0.004306428 -0.0033806008 -0.0015774507 0.001602795 0.00467626 0.0012438442 -0.002985469 -4.9107242e-05 0.0034296336 0.004670973 0.0020024013 0.0039195837 -0.003240754 -0.001805539 -0.0030841292 0.00027882867 -0.001132055 -0.0015451729 -0.00194193 -0.0023987389 -0.00060233986 0.0020649964 0.0049607093 0.0021354938 0.0031244867 5.807029e-05 -0.004585205 -0.0038339472 -0.00069074985 -0.003993419 -0.00056694634 0.0013428289 0.0042412933 -0.000333847 0.0010530157 -0.0010813475 -0.0038942092 0.0043704333 -0.0016615486 0.00365486 -0.0015544945 0.0002017282 0.0049518216 0.0032751048 0.0014642053 -0.0008501089 -0.0048250044 0.0037906123 -0.004378955 0.0018741898 -0.0024795712 -0.0026733803 0.0043725744 -0.002869773 -0.0027935451 0.00096660294 0.0047248993 8.866144e-05 -0.0031729704 -0.0028514278 -0.00136151 8.157315e-05 0.0046423776 0.00046102982 0.00026676524 0.00446523 0.0008402099 
31 0.0025778976 -0.004930952 -0.0035147164 0.0027565295 0.0029405179 0.0035978425 -0.0043928176 -0.0013929456 0.0035807453 -0.00072173355 0.0028598122 0.0012833076 0.0026788013 -0.003259626 -0.003957418 0.002188257 0.0019375952 -0.0017996335 0.0040137935 -0.0011353241 0.004821606 0.0014095563 0.002362769 -0.0031932062 -0.00057403184 -0.0045217625 0.0042111874 0.00085880095 0.001961269 -0.0021785193 0.00499605 -4.862435e-06 -0.00010133814 0.0029080994 0.0025324505 0.0032096896 -0.0002039522 0.0035254965 0.0031357892 -0.0024274385 0.0004546875 0.004593361 -7.1046874e-05 -0.0036328833 -0.00091595156 0.004737934 0.0038122172 0.0011971896 0.0041168826 0.0022090208 -0.00011359574 0.0046921903 0.00028428575 -0.0040932987 0.0013625599 -0.0007082885 -0.0046898024 0.0032614106 -0.0028826087 -0.0020001791 -8.1053935e-05 -0.0033511894 -0.0008803904 0.0043110605 -0.004986978 0.0040961364 0.002875057 -0.002637512 0.0017053494 -0.004245212 -0.0035448938 0.0025907466 0.0019149864 0.0022050138 0.002585927 0.003609417 -0.00087082665 0.0043007806 0.0012045722 -0.0025164068 -0.0038698243 -0.00091539836 -0.001325466 0.0037280275 0.0017672163 0.0016102777 0.0007225573 -0.0031520487 0.0021868292 0.004932804 -0.001108567 0.0026108497 0.0049233045 0.0047372 0.00025452022 -0.0047174958 0.0031791003 0.002132778 0.0006370926 -0.0009861072 
32 0.0015954967 -0.0020925652 0.0012569702 0.004835722 -0.0023538417 0.0048274435 0.0031116018 -0.004806881 -0.00044009043 -0.0002669678 0.0025921888 0.002762692 -0.00022752536 -0.0030800044 0.0043215165 0.004412612 -0.00090876734 0.0024946062 0.0037147542 0.0037132967 -0.004568933 -0.000369573 -0.0011026305 -0.004498373 -0.0011243778 -0.0028238285 -0.0036578297 -0.0035054279 0.0023513162 -0.0037580251 0.0023852424 -0.00489511 0.0049197003 0.0024186242 0.00063338224 -0.0028154843 0.002617375 -0.0013278066 -0.0016625393 0.0030976497 0.0008766721 0.0036184732 0.0036498085 -0.0035740386 0.0042034546 0.004894959 0.0034901472 0.0037186863 -0.0014664275 -0.0029912977 0.0044114115 0.00089661125 -0.003662365 -0.0027641696 0.0032847067 -0.002956066 -0.0029572123 1.954101e-05 0.0025754855 0.003657694 -0.0006043138 -0.003951778 -3.328547e-05 -0.0031159776 0.0001732693 0.0024369452 0.003469837 0.0049394416 0.0008341265 0.001230157 -0.004924089 -0.0049619875 0.00039865263 -0.00094003 -0.0009795818 0.00088067586 0.0040767286 -0.004257745 -0.0029592335 -0.004739757 -0.0034330487 0.00039657485 0.0033539208 -0.00030486705 -0.0043538776 -0.0032794278 0.0013594846 -0.0027665214 0.004015834 -0.004405449 -0.0024772906 -0.00091682095 0.0020753792 -0.0036786287 -0.002433716 0.0031704726 -0.0015415335 0.00036093174 -0.003613656 0.00048329588 
33 -0.0029780762 0.0018303739 -0.0033785421 0.003039917 -0.0007123118 -0.004193987 0.0020621885 -0.004583217 -0.002997651 0.001829409 -0.0024101054 -0.0032627094 0.003891523 -0.0010374128 -0.002794714 -0.0034397603 0.0021165106 0.0044448497 -0.0038903374 -0.0006146012 0.00038512982 -0.00076209055 -0.0011169636 -0.002625838 -0.0040757107 0.0018605255 -0.0031786305 0.0043480685 0.00084334426 -0.0015516733 -0.00020766491 -0.001879866 -0.0023051666 -0.0032990258 -0.004238396 -0.0005129515 0.0017560269 0.003036744 0.004361743 0.004523539 0.0029744823 -0.003315013 -0.0018834246 0.0045523923 0.0032965755 -0.0018272304 -0.0008650599 0.0002489132 0.004205444 0.0022653663 -8.206535e-05 -0.004200043 0.0023653638 0.004952723 -0.0019045484 -0.0015516507 0.00017911056 0.004172326 -0.004886251 0.0010399888 -0.0013677746 -0.0027959512 -0.0006433199 -0.0012108206 0.0022514914 0.0037519196 -0.004288783 0.0023869122 0.0043288376 -0.0015045481 -0.0044230856 -0.0008700425 -0.0026279998 -0.0019460148 -0.00091558136 -0.0044844095 0.00073321443 0.001954862 -0.00040379353 0.0017633084 0.00053208694 -0.0049057743 0.0011113263 0.0016673892 0.0002748845 0.0042589204 0.0033392413 0.0038343836 -0.0011097644 -0.0014844292 0.00078349235 -0.0003260444 0.0041155936 -0.0009785565 -0.000546237 0.00023925351 0.00015890412 0.0034288242 -0.00082050776 0.0016086469 
34 -6.5998174e-06 0.0010009422 0.0004776572 0.000797695 -0.0016408742 0.002361481 -0.00431013 0.0012946497 0.002876943 0.0039406503 0.0024389522 0.00093835965 -0.0049894783 -0.0014711237 -0.0023046595 -0.0037280975 -0.0014803696 0.004580968 -0.0030507762 -0.0036405276 -0.0048968713 -0.0036622642 0.0013847118 8.9511275e-05 0.00065229554 -0.0039371504 -0.004839403 0.0029470725 0.0043704137 -0.0003048582 -0.0009757262 0.0036573773 -0.0025819354 -4.7136098e-05 -0.0036823582 0.0016149343 -0.0025848502 0.0027379612 0.0046614995 0.003140645 0.0017630998 0.0040303245 -0.0003972454 0.001970823 0.0009576911 0.0023109731 0.0018914682 -0.0027498435 0.0036155805 0.002457879 -0.0009804927 -0.00025497563 -0.0038602685 0.0022461182 0.0033689383 -0.0009476952 -0.00017473986 0.0017499966 0.0036723698 0.0046286657 0.0020260406 0.0046262424 -0.0020470612 -0.0041939216 -0.003541851 -0.0032147965 -0.0025802564 -0.0040016035 -0.001529163 -0.00056098914 -0.0035820466 0.002640103 -0.0031719082 -0.0038507956 -0.003144546 -0.0020933454 0.0034344913 -0.0033181482 -0.0043022847 -0.0048894463 0.0004336182 -8.08374e-05 0.0038989624 -0.0031551383 -0.004524846 -0.0013507723 -0.0003888104 0.0007629371 0.0016718679 -0.0025836253 -0.0007091104 -0.002267376 -0.0016714055 0.0014642524 -0.0040559266 -0.0013878488 0.0023604585 0.0031002583 0.0023744116 0.0049433857 
35 0.0011821175 -0.0020727485 0.00453824 0.0039324192 -0.0006182855 0.0032804245 0.0021683853 -0.0038511544 0.0001403261 -0.0004796367 -0.0017169272 -0.004594655 -0.002675932 0.00019379845 -0.0016673333 0.0022152448 -0.0025117837 -0.0040241354 -0.0016118442 -0.0014534998 -0.004192389 -0.001983826 -0.00075600995 0.0030676667 -0.00064244913 0.001005502 0.004302469 0.00045606308 -0.0046945876 -0.0029018961 -0.002995885 -0.0032415516 -0.0033077816 -0.004892227 -0.0022460234 0.0029991968 0.0034558745 -0.0023908787 -0.0033190846 -0.00095369807 -0.0042480538 0.004221172 0.00482733 0.002413292 0.0049104514 -0.0041596172 -0.002659542 0.0037321253 -0.0021414058 -0.0032050132 -0.0036878835 0.0020233686 -0.0019327658 -0.0011898337 0.0024447506 -0.0036068945 0.00050985673 0.0032901885 0.0035101762 0.000796475 -0.0005648704 -0.0015534663 -0.0041074464 0.002947811 -0.00030615507 0.00080932723 -0.0026470232 -0.00047709 -0.0009827567 -0.002700779 -0.0011744315 -0.0016173346 -0.00058579445 0.004392189 -0.00051748566 0.001474238 0.0032305792 0.0028042668 0.004278603 -0.0017298369 1.163641e-05 0.0040793763 0.0027236287 0.003844018 -0.003357919 0.0031199362 0.0016801427 -0.0008656336 0.0032652542 0.003299635 0.0018803072 -0.0032413886 0.0018405346 -0.0028918118 0.00063257804 0.0019088066 -0.0045486954 -0.0020410721 -0.0023560445 -0.0016995543 
36 0.0010617417 0.0039054677 0.002663604 0.004068003 0.0022593522 0.00017163204 0.003526574 0.0048050694 -0.0033164895 0.0014472948 0.0021055755 -0.0010568094 -0.004006563 0.0037510647 -0.004693075 -0.0020387322 -0.0016869188 -0.0026471363 0.00025379844 0.0040189866 -0.00477164 -0.0035614716 -0.0040842732 -0.0036822963 -0.0033164697 -0.0045148614 0.0048393803 -0.0021204208 0.00395637 0.00011522509 0.0033967597 -0.003431694 0.0016066576 0.0020976602 -0.0015242076 0.0037915325 -0.0031624208 -0.003937044 0.0021875803 -0.000100478996 0.00020744558 0.002761735 0.0043090805 -0.0035680532 0.0019736597 0.0016476563 -0.0038723128 -0.0046346146 0.0043733465 -0.004115771 -0.0029487622 -0.0013677054 8.362159e-05 -1.8305145e-06 -0.004777497 -0.0010305196 0.0036746114 0.00090442225 0.0031258138 0.0008752546 0.0036476199 -0.0028427232 -0.0019801313 0.0046406975 0.0029948428 0.0018616738 -0.0038738893 -0.002934472 -0.0040896796 -0.0006938856 0.0044617737 -0.0023457776 0.004547366 0.00040591182 -0.003209894 0.0041399216 -0.0026757466 -0.0040517747 -0.0044983365 -0.0019361232 0.0028121513 0.0034158882 0.0026507117 -0.0034233234 0.002043462 0.004073565 4.187366e-05 0.0029082783 0.0030048648 0.00043786177 -0.0016711091 0.002056411 0.004033326 -1.04876235e-05 -0.0035959948 -0.0021145332 0.004157047 0.0049063414 0.0011829841 -0.0026478635 
37 -0.002248584 -0.0028210115 -0.0026499575 -0.0036970347 -0.0017997967 0.0011607427 0.00317444 0.0047974624 0.0018843235 0.0047635324 -0.0004618927 0.004170498 -0.003972116 0.0010857964 0.0019491375 -0.002270143 -0.0023108183 0.0015423973 0.0014893226 0.0030877572 -0.004025523 -0.0014269543 -0.0010650689 -0.004900995 0.0017786417 0.0009131329 0.001644576 -0.0001461287 0.0008445238 0.004691558 -0.0032937233 -0.0038990146 -0.003354529 0.0019329325 -0.0005235188 0.0020939372 0.0043513626 0.0031391932 0.002799977 0.004327447 0.0020937426 -0.00379912 0.0049986914 -0.0046603126 0.0012175394 0.004974856 -0.0046819686 -0.002491058 -0.0032144678 0.0026889108 0.0022004424 0.004580547 -0.0031192116 0.004941209 0.00018586079 -0.0028623533 0.0032195523 -0.0040348787 -0.001959933 -0.0013825297 0.0045572575 -0.004631417 -0.002588548 0.00064947363 -0.0041315947 -0.0047319126 -0.0024439096 0.0030096732 0.00027094223 -0.0009543174 -0.00011196546 0.00048760464 -0.0012298543 0.0013328367 -0.0026484793 0.0006697215 -0.002919607 -0.00047544483 0.004323271 0.0027832002 0.0043165414 -0.0032593077 -0.00015255203 -0.0031089925 -0.0029033928 0.003341836 -0.00287046 0.00018148823 0.0038880864 0.0012493501 0.0016679512 -0.002542511 -0.004193838 0.0038306555 2.5653746e-05 -0.002332658 -0.00058553554 0.0041101435 0.0028664777 -0.00040076906 
38 -2.569845e-05 -0.0023159022 0.001679631 0.001492619 -0.004308205 -0.0045101903 -0.0016046118 -0.003563338 -0.004844612 0.0042032665 0.0003448152 -0.004335161 -0.001481083 -0.0038372902 -0.00045554107 -0.0026234202 -0.0034069596 -0.0027285044 0.0025449148 -0.0016266191 0.0033407062 0.003630925 -0.0013092558 -0.00027774973 0.003950919 -0.0014475011 0.004292153 -0.0027497548 0.002457399 -0.0039217346 -0.0009525423 0.0032402184 -0.00255356 0.0031522391 -0.0026266794 0.0046790577 -0.0019152719 -0.001710295 -0.00017809449 0.0034535863 -0.003423478 0.0033340594 -0.0031971084 -0.00035383645 0.0044072084 -0.0026063311 -0.00021488126 0.004554471 0.0038972022 0.0012225234 0.0012539406 0.0038779266 -0.00042697508 -0.0005982453 0.0045780838 -0.0044472096 0.0048082657 -0.0018214344 0.0020627333 0.0005084807 0.002209602 0.0005108034 -0.0027800382 -0.0022742955 0.003568912 -0.0024362642 -0.0041997856 -0.0023115873 -0.0030751037 0.0020558853 -0.004527132 0.00092284754 -0.0019168144 0.004138333 0.0027580801 -0.003727119 0.0028850585 0.0006486117 -0.0003127628 -0.002873953 -0.002640705 0.0026497697 -0.0021806746 -0.00252923 0.0034838254 -0.00405061 0.0018434203 -0.0021493607 -0.004374932 0.0042589027 0.004189343 -0.004337859 -0.0029522483 -0.0038791639 -0.0006932705 0.0012294562 -0.0043060617 -0.0034197527 -0.0027999121 0.0044371476 
39 0.002316637 -0.0019471389 0.0017274087 0.00431957 -0.0015563464 -0.0032479963 0.0032715686 0.0037528053 -0.0033362065 -0.004862317 -0.0045237886 -0.004871075 -0.0011129964 0.00040997285 0.0029994715 0.0015794337 -0.0047448664 -0.0039571663 -0.003943984 0.0019494323 -0.0025893603 -0.002108621 -0.0016610103 0.0031587258 -0.0046567353 0.002212097 -0.0006062472 -0.0012017596 -0.0041815815 0.0016756663 -0.0005979589 0.0043408955 0.004994848 0.0020237411 -0.0013786058 0.003016537 -0.0037677488 0.0023971437 0.003946186 0.004866096 -0.0004237704 -0.0024483418 -0.0042980695 -0.00020860974 0.0030059759 0.003175484 -0.0022345888 -0.003701201 0.0049929796 -0.0014596379 0.0024573212 -0.0015665251 0.0035668453 -0.0012975358 -0.0027095585 0.0012038471 -0.0037614983 -0.0013147921 0.0047639627 -0.0030935872 -0.0009288788 -0.0031991266 -0.0018367921 -0.0010597724 -0.0014080817 0.004210281 -0.0016768062 -0.00027140323 0.0010381676 0.0034373645 -0.002923646 -0.0025094466 0.00204055 -0.0021515982 -0.002383272 0.0036089867 0.0009796284 -0.004688019 -0.0024131632 -0.004842475 0.0007412117 0.004657994 -0.0033661402 -0.0012547148 -0.0022944224 9.3824696e-05 0.0031770095 0.0033034058 0.004049897 -0.0043800194 -0.00032368908 0.0015060864 2.9596034e-05 0.004563895 -0.0013649601 -0.0022953355 0.0014462406 0.0023554168 -0.00043797353 0.002858743 
40 0.001861732 -0.0015700341 0.00058189733 -0.0019952655 -0.0023261034 0.0047825007 0.0012965607 0.0018716166 0.0048244167 0.003787483 0.002873364 -0.0033097467 0.0022852928 -0.0039925533 0.000730054 0.0038893837 0.004537901 0.0036700359 -0.0013185339 -0.0015733808 0.0018931581 0.002798996 0.0004803706 0.0048758416 0.0016517946 -0.00051128026 0.0031217923 0.0021070684 0.002860969 -0.002553044 -0.0042007104 -0.0032838946 0.001194213 -0.0040373104 0.0032744315 -0.0045580226 -0.0034426767 -0.0020816147 0.004864943 -0.0031149662 0.00355425 0.0023701391 0.0010085977 -0.0045570317 -0.0049249623 -0.003250451 -0.0018677593 -0.0022382354 -0.0013567363 -0.0018223452 -0.0012295037 -0.0012124281 -0.0033060312 0.00038538873 -0.004414007 -0.0028170585 -0.0030747973 0.0039193016 -0.004854946 0.003031917 0.00030497136 -0.0029580723 0.0012759627 -0.0033192371 0.0025752643 0.0036118263 0.00033593643 0.0032614525 -0.004472065 0.0027529644 -0.00411274 -0.00039260462 0.0004604049 -0.0025807512 0.004908517 -0.0041561997 -0.00488706 0.0034582186 0.0005357368 0.0047616586 -0.0028061138 0.0022038035 -4.562782e-05 0.00043862872 0.004091234 0.0044043288 0.0041984376 0.0012669056 -0.0026556426 -0.0015279697 -0.0011405915 -0.0017992181 0.0044492483 -0.0018843585 -0.00062055 0.004109836 0.003142871 0.00011255732 0.003449886 1.1936296e-05 
41 0.004339262 0.002661075 0.00417477 0.0014250265 -0.0021522415 3.5448465e-05 -0.00036262022 0.0033755153 0.0014603902 -0.0016765785 -0.0012230426 -0.00069251936 -0.0012242799 -0.0033849264 0.00058908993 0.0037991991 0.00071179634 -0.0028617952 0.004668802 0.0020638816 0.0045626285 -0.0035493225 -0.0027689605 -0.0027194528 -0.0022357083 0.001010613 0.0017885976 0.0019456036 -0.0014745868 -0.0042657307 -0.0018996058 -0.0032295214 0.0045551565 0.0020888215 0.0019316352 0.00077054417 -0.002450723 -0.0022449845 0.001518927 -0.0014256686 -0.0013239407 0.00039112708 0.0035069324 0.0041490328 -0.0022332757 0.00018579653 0.0039493423 0.0037116576 0.0047820015 -0.0023465906 0.0021480815 -0.0030278075 -0.0003687488 -0.004482477 -0.00085123256 -0.0029679178 -0.004969114 0.0005080141 -0.0022861243 -0.00031474 0.0026872908 0.0022717007 0.004869939 -0.0034331921 -0.004883514 -4.6814792e-05 -0.0024600916 0.00044853147 0.0037254551 0.0043081865 0.0026021819 -0.0037957327 0.0017901706 0.00037032738 -0.00061406614 0.0013345522 -0.0028390992 -0.0016635156 0.0017856411 0.0007605674 0.00049148314 -0.0019158309 0.00019039074 0.002258875 0.00040342612 0.0047692386 0.0039789155 -0.00359501 -0.002788003 0.0013924795 0.003294088 0.002996808 -0.0034827602 0.002140489 -0.004707574 -0.0029309988 -0.00078332936 -0.0023984057 -0.0013754307 0.0048154714 
42 -0.0021652048 -0.001230502 -0.0033495438 -0.0037069088 0.0027411557 0.004397815 -0.001613952 0.001556505 -0.0010408992 0.00088554807 -0.0047774375 0.0019125692 -0.0021818054 -0.0031394404 -0.0034749298 0.003983672 0.00061228266 0.0041951016 -0.0026313227 -0.0025232236 0.0009127157 -0.002437744 -0.002366386 -0.0015441054 0.0014320202 -0.00044029998 0.0029138103 0.00013254303 -0.0018257909 0.0045669563 0.003377445 0.004968778 0.0041526975 0.0015204228 0.0007224572 -0.0020065492 -0.0017684107 0.0014504436 -0.003832187 0.0012252815 -0.004347535 -0.002980324 0.0007001031 -0.00037293136 0.0009355359 -0.0031217695 -0.0022683323 0.002137863 -0.0015251224 0.00047711376 -0.003179143 -0.0027350478 -0.004087398 0.0010814411 -0.0024757027 -0.0006713057 -0.0033927434 -0.00031176396 -4.54979e-05 0.0005805278 0.004152366 0.00032386463 -0.0023913824 0.003608684 -0.00012802379 -0.0018421672 0.0016422202 0.0022685514 -0.004333201 -0.0009797895 -0.0038617807 0.00407039 0.0033144886 0.00076632714 0.004542753 -0.0021673006 -0.0048293644 0.0018100506 0.0007676999 -0.000616034 0.0032229219 0.0019078888 -0.0029801403 -0.0004230286 -0.004906478 0.0003568139 -0.0018984145 -0.0030412555 -0.0010962586 -0.00065962505 -0.004198762 -0.0016858678 -0.004139968 0.00063291425 7.429486e-05 -0.0049117496 -0.0030464274 8.494267e-05 0.0046192408 -0.0034816223 
43 0.002078175 -0.0034771394 -0.0018741172 0.000615675 -0.0039427495 0.004261167 -0.0042845914 -0.00013478287 -0.0039435495 -0.004037791 -0.003897783 -0.0048603034 0.00012711575 -0.0015244705 -0.0018811624 0.0019044322 0.0023113019 0.000448321 0.003780527 0.0024835924 -0.0034331963 0.0015988545 -0.00089336094 0.001707396 -0.003995096 -0.0032037348 -0.0040717763 -0.0039299238 -0.004528512 0.0028382484 0.0047994014 0.0028170208 0.0009942888 0.0040689567 0.0011019963 -0.004929547 0.003586636 -0.00079990784 0.0038187746 -0.0028390014 -0.0022855508 -0.0006610565 0.0043096226 0.0043851305 -0.00022233976 4.7868118e-05 -0.00034882966 0.0024971836 -0.0028553437 -0.0047965054 -0.0013110023 -0.0036007094 -0.0026309602 0.0042874124 0.0005064844 0.0040871855 0.0011265478 -0.0022257078 0.003289152 0.0013335506 -0.0020039165 -0.0031361184 -0.0044680387 -0.003496503 -1.6153324e-05 -0.004709215 -0.0032490592 0.0029547457 -0.0044272374 0.00031678425 0.0019548852 0.0030432856 -0.0020314895 0.0017336686 0.004631102 0.0009226701 -0.0016972339 0.0013316823 0.0006108964 0.0015384369 0.0028604046 -0.00090036076 0.0031376816 0.001413105 0.004649449 -0.004328988 0.001476997 -0.0027343482 0.0018991292 0.0030536521 -0.00074906694 0.00020243414 -0.0019979673 0.00076002395 -0.004321842 0.0010265694 0.00041165715 0.00081627676 0.00029830867 0.0017818017 
44 -0.0025804085 0.001012512 -0.0035766684 -0.0013867998 -0.0025065732 -0.0010800869 -0.0025822616 -0.0021445453 0.004998751 -0.0015513683 0.0002893866 -0.004788661 -0.0047493046 1.5176367e-05 -0.0032515852 -0.0019403291 0.0044392217 -0.002656216 0.0027632047 0.004647484 0.000574959 0.0012650155 0.0006122608 -0.0033669262 0.0032512918 0.0032006241 0.0030677784 0.0009999829 -0.0049701342 -0.0032236818 0.00373149 -0.004618312 0.0014712187 0.0041675493 0.0047384882 0.0046379194 -0.0039745043 -0.0038037358 -0.0041205348 -0.0020820731 0.0034301896 -0.0035238229 0.0004553888 -0.0027572368 0.002098761 0.0031717392 -0.0003528744 -0.0030048464 0.0010908372 -0.0033213191 -0.0034618531 0.002651888 -0.004568245 0.0017706603 0.0036921175 -0.0040522455 -0.004665639 0.0039446894 0.0019766376 -0.00083487155 0.00046368316 -0.0027324932 0.00293566 -0.003355058 -0.0022315318 0.00048334012 -0.0045706085 -0.0013519567 -0.0041618375 -0.0019432812 -0.000611803 -0.0014536304 0.003113131 0.0036776448 -0.0010725008 0.0014256709 -6.055273e-05 -0.004991793 0.0046924856 0.001273782 -0.003241527 -0.0042532366 -0.0018872784 0.0018904759 0.0007417039 0.0036921706 -0.00441994 0.004510304 0.0027095508 0.004609692 0.0031210883 0.0045881225 -0.0013392258 -0.0011960452 0.0028655753 0.0021621631 -0.004288841 -0.0031926022 -0.00052110245 -0.00097434875 
45 0.0016453732 -0.0038138025 0.0018972349 0.0031764442 0.004221742 -0.0038390136 0.0012807897 0.004786726 -0.0016073764 -0.0023275048 0.0033974387 0.0027894983 0.0038528051 -0.004989561 0.0022445489 0.0035915114 -0.0016582203 0.0034020422 0.0040916465 -0.00039246492 0.00028419076 -0.0042253337 -0.003842216 0.0022924338 -0.003471325 -0.0027877663 -0.0039480617 -0.00013609091 0.0010812408 0.003214281 -0.0045122295 0.0016882024 0.0018453281 0.0020747343 0.0047650225 -0.00069557596 -0.0025529186 -0.0004912447 -0.000764905 0.004074353 0.0022238395 0.0020192824 0.0037481887 0.00076396624 0.003900106 -0.003512349 0.0020189877 0.0013729045 0.0036892286 -0.0026090352 0.0040037315 -0.0009275051 -0.0004790593 0.0028991112 -0.0006319778 -0.00319188 -8.4948726e-05 -0.0017012977 -0.0035151122 0.00089685153 0.002765919 0.0042542787 -0.00066901883 -0.004967316 0.0045298142 0.004942094 -0.0029917425 0.0024993126 0.0036176732 0.0021001715 -0.0026675295 -0.004606425 -0.0044519696 0.0034402767 -0.00068745017 -0.0032357674 0.003926578 0.002588924 -0.0042802105 -0.002230342 -0.0031296979 0.0017959569 0.0024590273 0.0028660223 -0.0026007108 -0.0035195511 0.00034755096 0.0025514918 -0.0048556156 -0.00053128786 0.0047099516 0.004743331 0.004421644 -0.0036999523 0.0031069918 0.0006911848 0.00435597 0.001160162 0.0014466089 -0.00062431395 
46 0.0005561877 0.004770685 0.004209386 -0.002166828 -0.00026031444 0.000505473 -0.0042190705 -0.0031790535 -0.0027748565 -0.0032638763 0.0049346127 -0.0037866442 0.0016749054 -0.0025063413 -0.0042542326 0.00063925283 -0.0016724712 -0.0026858186 0.0032869317 0.001299263 0.0026235753 -0.0002930183 0.0029804753 0.00038388 0.0020986306 0.0046260785 0.003013404 0.0030882116 0.0021971194 0.0045945933 0.0026313453 0.00069592893 0.0026836614 -0.0037857024 0.004835884 0.0030137543 -0.0020033258 0.0019306587 -0.0013030446 -0.0027363931 -0.002198178 -0.0030212926 0.0027653766 0.001461416 0.004625775 -0.0023864817 0.003296636 -0.0037011718 -0.00020944932 0.004773842 -0.0033427975 -0.0032366049 0.0046497276 -0.0020214415 0.0007946477 -0.0034394157 0.0039578415 0.00021109916 -0.004233033 0.0029086974 -0.002222018 0.002554595 0.000537707 0.0035244431 0.004676 -0.0013636672 0.0016701464 0.0036127046 -0.0016419296 0.0013091336 0.0011083297 -0.0044307504 0.00493991 0.000982237 0.0026830798 -0.0014755917 -0.0011406553 -0.0010194439 0.0043212874 0.004396145 -0.00018215319 -0.0008302317 -0.004184331 0.004816397 0.0011876905 -0.002746412 0.0001598252 0.0030999957 0.0030637216 -0.0019945805 0.0030797627 -0.0046826093 -0.0024224531 0.0039746715 -0.004512996 0.0048290575 -0.0010156236 0.0033819303 0.00094144326 0.00018960005 
47 -0.00097391056 -0.0015657484 -0.0009540124 -0.00247564 -0.0036931646 0.0013174824 -0.0030011146 0.000353341 0.0036999146 0.0039036414 -0.002823531 0.0020188373 0.0024437653 0.0007288847 0.0031332793 -0.0026208328 -0.0016548347 -0.004884363 0.0038878992 0.003208274 -0.0028290933 -0.0013768459 0.0016942201 -0.0032889652 0.0006040819 0.004965907 0.002671142 0.0023473138 -0.002420777 -0.0045036906 -0.0023438162 -0.003786761 0.000531761 0.0039410023 0.0023587984 -0.0044425474 0.0003797384 -0.0015110665 -0.0022214127 0.00032456685 -0.0041265953 -0.0046489853 -0.0014286763 -0.0048577636 0.003845227 -1.1479948e-05 -0.0010954726 -0.0025619369 0.0045885863 -0.00298922 -0.0007813624 0.0010985024 0.00393816 0.0020386158 -0.0012373172 0.0033435617 0.0009732051 0.0021860371 -0.0030015612 0.0007090168 0.0017529093 -0.003572642 -0.0046173353 0.003125514 -0.0039888457 0.004155145 0.0017634672 -0.0040738992 0.0011041551 0.0009887456 0.0016688127 0.0012356122 -0.0023519944 -0.0043032025 -0.0010019755 -0.003018832 -0.0026751733 -0.0045944196 0.002962701 0.00045617763 -0.0029228877 -0.0009940038 0.004863873 -0.000663904 -0.0023491937 -0.0015866004 -0.0026938051 -0.0041146106 -0.002153945 0.002418702 -0.0015818404 -0.0003319783 0.0013356875 -0.0017183088 0.004842935 -0.0007668538 0.004395635 -0.0026909022 0.002114201 -0.0010271496 
48 -0.00020529795 0.0034677228 -0.00072568795 0.0036684182 -0.0044150343 0.0004246654 -0.004863455 0.002050377 0.00348669 0.004440804 0.0021984177 -0.0039825914 -0.0011875671 0.002421217 -0.0042537637 -0.0024681902 -0.0028241938 0.004487047 -0.0005313358 -0.00061151804 0.002775407 -0.00065984065 0.0015488127 -0.004649263 0.0007861317 0.00058022374 -0.0035081934 0.004579786 0.0010137982 0.0023712502 -0.0022648107 0.0046674022 0.0018687546 -0.0024271298 0.0013653273 0.0022374308 -0.002064262 -0.0042215176 0.0036425097 0.001913168 0.0023838887 0.004873379 -0.0010341336 0.002966608 0.002419501 -0.0035413825 0.0048240284 -0.0023801469 -0.0047284435 -0.0028704554 -0.0040469114 0.00402923 0.004113178 -0.0035225903 0.002187075 0.0035072751 -0.0010015643 -0.0005901675 0.0026648054 0.0021489328 0.004159501 -0.0045307768 0.0048440406 -0.0031574934 0.004473935 -4.9674418e-05 0.0021556425 -0.003714853 -0.004481069 -0.0027162395 0.0020700903 0.00031937845 0.0030901954 0.0034911186 0.00055407407 0.004653292 0.0045275884 -0.0047420026 0.004210324 -0.0034326701 0.00308392 -0.004361605 0.00015297672 0.0018811114 0.0037767664 -0.00015773997 -0.0036010803 0.001835295 0.0044026477 0.0022834395 -0.0037109964 0.0017699436 0.0023529879 -0.0045476267 -0.004320194 -0.0043588667 0.0038873833 0.0014449721 0.0042550676 0.00011110725 
49 -0.003972563 0.0036554057 0.00010887161 0.0035838606 -0.00081684114 -0.0039830925 -0.00023752032 -0.0015542018 -0.0029730003 -0.0010915939 0.0045145573 -0.0023834072 0.0026965933 -0.0012688565 0.0014580614 0.0004295092 0.004490301 0.004662307 -0.001453554 -0.004884267 -0.002420169 0.0040492965 -0.004678452 0.0045643346 0.0049285945 0.0012204689 -0.0009829514 -0.0047914 -0.004815419 0.004156189 0.0010223468 -0.004105442 0.0012479364 0.0029312167 -0.0026495468 -0.004808843 -0.0006749048 0.0041852603 -0.0034732937 -0.003676794 -0.0024039887 0.0021068803 -0.0042302767 -0.0033009667 -0.0044269753 0.0018865624 -0.0027860098 -0.0018492246 0.001154752 0.00081745675 0.0015184521 -0.0048921234 0.0005454449 -0.0010714475 -0.0032720815 -0.000759623 0.0022870856 -0.0028524243 -0.003291776 0.0009109867 0.00057007 0.0038810167 0.0032347543 -0.0024758715 0.0044294 6.381981e-05 -0.00014524208 0.0027477983 0.0034090737 -0.0024948583 -0.0010464466 -0.00024307193 -0.004068837 0.0042531993 0.0019238535 0.00029079802 -0.0043264227 -0.00044247461 0.002845291 -0.002506125 -0.001480741 0.0021508723 -0.0021092969 0.00091122463 0.00030967407 0.001963492 -0.0041622827 -0.0044442127 -0.0042483327 -0.0025324922 0.0042898105 0.004739985 -0.0015180218 0.004485132 -0.0011169517 -0.003382371 -0.0048509217 0.0037466679 -0.0015187084 -0.0030016291 
50 0.0031655002 -0.003532698 -0.002408787 -0.0017711741 -0.0022405207 0.0017350721 -0.0019821161 0.0020460258 -0.003951605 -0.0011392545 -0.0039734803 0.0043413863 -0.0038265132 -0.0029457551 -0.00041246228 -0.00064446963 0.004940169 0.0041405605 0.0011531333 0.003968307 0.0007839012 -0.0013538462 -0.004597335 -0.0035426826 0.0021581375 0.004686416 -0.003772854 0.0020872955 -0.0044196234 0.0024409737 0.0046594013 -0.0035330455 0.0038037226 0.00045119086 0.0010625813 0.0045754537 0.00472889 0.0047616605 0.0048622405 -0.001632455 -0.00018854905 0.0025150091 0.0022432045 -0.004305666 -0.0030243874 0.001170042 0.0032437881 0.0030502966 -0.0039721616 0.0035049561 0.0019557881 0.0037593069 0.0011173277 0.0037124828 -0.0009661787 0.0006408226 -0.0028513204 0.004699437 0.003538873 -0.0003283699 0.0037184078 -0.0004139305 0.0027673454 -0.0046216957 -0.0019554114 0.004877786 0.004122627 0.003730326 0.00042845448 -0.00292567 -0.001044482 -0.0036964887 -0.0026254207 0.0017140592 0.004500971 -0.000849104 0.004544555 -0.0007113726 -0.0043465267 0.0008743452 -0.002981993 0.0042277444 0.004906372 0.0023415978 -0.0039022872 -0.00017763209 0.0009243572 -0.0028843705 -0.00034635887 0.0040633036 0.0040913764 0.0014518038 0.0028021345 -0.0034116898 -0.0007128422 -0.00017316779 -0.0045310184 -0.0009593419 -0.004103386 -0.0046532224 
51 0.0036937576 0.0007960326 0.0004024054 -0.0046711825 -0.0036145751 -0.004073317 -0.0017945331 -0.0033731041 0.0030296016 0.0014635753 -0.0033986806 -0.004596977 -0.0025197314 -0.00060239946 0.0025294079 -0.0033008484 0.0017619585 0.0005103522 0.0047245547 -0.001673107 -0.003912741 0.003986614 -0.0015510672 -0.0035149616 -0.0015518963 -0.004000957 0.0045164265 0.0010518376 -0.004424135 -0.0023967552 -0.003506376 0.002261832 -0.0018357032 -0.002921242 -0.00031403545 -0.0036803423 0.0035997937 -0.000372889 -0.0017595065 0.0029445821 0.00025786925 -0.0028898488 0.001443177 0.0019072853 0.00015273504 -0.0017301906 -0.0013509137 0.0015467037 -0.0048710234 -0.0033440625 0.0020812862 -0.0017172862 -0.0020168168 0.004449037 -0.002332765 0.003251656 -0.0014818101 -0.0018387181 0.0038883397 0.0029077483 0.0032326719 -0.0041163927 -0.0005290257 -0.0016292823 0.0039805565 -0.004773169 0.0022242754 -0.0041615833 -0.0037696671 0.0022438574 0.0038832054 0.0036339154 0.0044921963 0.0010134517 0.001271551 -0.0026011525 -0.0009629 0.0043044332 -0.0042349985 -0.00077029085 0.004746602 0.0012591355 0.003551987 0.001417798 0.004838409 0.0026740795 0.0038855327 -6.386917e-05 0.0007591648 0.0049361894 0.0009895698 0.0031309435 0.0021383506 -0.0044609327 -0.0046100947 0.004544575 -0.0042755813 -0.0017945867 0.003168148 0.0035267267 
52 -0.002225725 -0.000766675 -0.0020419257 0.0023534815 -0.0023034548 -0.0040255017 -0.0002758624 -0.0018016952 0.0019932906 -0.0041885045 0.0038860478 -0.004565693 0.0040870206 -0.0021138573 0.003701982 -0.000109813176 0.004347043 0.0036253873 -0.0025228136 0.00364911 -0.0018592416 -0.0014437116 0.004013939 0.001744994 -0.0035167895 0.0012730099 0.00074010063 -0.0025980663 -0.0022461074 -0.002672419 -0.004602763 0.004075733 0.0030905977 -0.0036923836 0.0029977076 -0.0037500171 0.0015565772 -0.0007202709 -0.0036094796 0.0032987995 -0.00077818055 0.0020767157 0.0030061333 -0.0029413025 -0.0032956903 -0.003503304 0.0046750493 0.002208284 -0.004967106 -0.0043113837 -0.0015437596 0.0047046775 -0.004074272 0.002833128 -0.0039210897 0.004765411 -0.0010757516 0.0034069428 -0.003005914 -0.0029366869 -0.0016125636 0.0017094593 0.004614789 0.0049064504 0.0028781863 0.00031480612 -0.0031660814 0.004021872 -0.001877076 0.0005796454 0.0013806028 -0.003083871 -0.0020188033 0.00042907102 -0.0021993064 0.004227902 0.0003801994 -0.0027284222 0.0008459459 -0.00020230841 0.0037713656 0.0040129647 -0.0026115465 0.0011420781 -0.0016949766 0.0011853655 0.0011526076 -0.002015159 0.0034171147 0.0049123503 -0.0041798013 0.0023273868 0.0029833708 0.0031269444 -0.0015538216 0.0045678057 -0.002939549 -0.0027451813 -0.00010722829 -0.0018577813 
53 0.0001830007 -0.0034027211 0.001474875 0.0030561658 -0.0013932777 -0.0018799936 0.001710006 -0.0008105985 0.001306382 0.0044190083 0.002719876 0.002160911 -0.0034674972 0.00035710167 0.0035677152 0.0017480273 0.00088969385 -0.0028673213 0.0043507125 0.00027725566 -0.0012110292 0.0033898354 0.00040589087 0.0022512563 0.001443821 -0.003790828 -0.003035454 -0.0039770883 0.0046481397 -0.0031900406 0.0024527311 0.0030043293 0.0004326366 -0.0007086694 0.0021923678 0.0014377371 0.0003563501 3.461726e-06 0.0025188224 0.002402021 -0.0025559205 0.00071724644 -0.0042806407 8.423347e-05 -0.0013059562 0.000933914 -0.0047447723 -0.0025724065 0.00033981306 -0.004278768 -0.0022075681 4.4761226e-05 -0.0016682618 0.0044569364 -0.001994778 0.004442961 -0.002934913 0.0044481996 -0.0037763906 -0.004645736 -0.0025264835 0.0040601855 -0.0025368172 -0.0047773365 0.0009384644 -0.0021446561 -0.0023870594 -0.0023722511 -0.0017806368 -0.002120664 7.5906515e-05 0.000781334 0.002703901 -0.0015230542 -0.003918006 -0.0009623207 0.0005285735 0.004219206 0.004551566 -0.0049305335 -0.000674041 -0.0011410636 0.0017184857 0.0013804501 0.0043733055 0.0019719126 0.003117049 -0.00058418885 -0.0049816454 -0.004081582 -0.0026291972 0.0029923199 -0.002986095 -0.0011822146 0.00067205867 0.00017598039 0.0022953213 -0.0023159718 -0.0023834854 0.00042965403 
54 0.001915284 0.00046995236 -0.00043251505 -0.001838984 -0.002774353 -0.0035396146 0.004920005 -0.004065948 0.0031146482 -0.004212602 -0.0035686712 0.0005570161 -0.0021448147 0.0049147364 -0.00049312273 -0.0022543466 -0.00022408133 0.001499549 -0.0026385826 -0.0036694277 0.002195518 0.00381881 0.0042436803 -0.0029650468 0.0005175364 0.0035126265 0.004358516 0.0012405701 -0.0026625425 0.003956344 -0.002934404 -0.0023224263 -0.0013492834 -0.00017579785 -0.0045177196 -0.002515583 -0.0030968713 0.0044428594 -0.004510902 0.0037145931 -0.0045496905 0.0024128798 -0.002571731 0.002156254 0.0029293457 -2.5946647e-06 -0.0018110757 -7.280335e-05 -0.004354332 -0.0019774835 0.0016259402 0.00442064 -0.0024277316 -0.0014610279 -0.00078451214 0.0016588443 -0.0047403816 -0.0035296415 -0.0047591766 -0.001958856 0.0023696632 -0.004001594 0.0019174991 0.0031819353 0.0034240559 0.0024201688 -0.0033352892 0.0032113781 -0.0011849981 0.0038153846 0.0019079763 -0.00485609 0.004025515 -0.0032306672 0.0019631116 -0.004357475 0.0029272437 0.0031438582 0.004923556 -0.0017298961 0.0015111957 -0.0026429663 -0.0010106713 -0.0015463089 0.003553939 0.003938237 -0.0019638508 -0.0034024487 -0.00027085003 0.00083471695 0.0014574397 -0.0013438838 0.0015457468 -0.004470159 0.0040440587 -0.00416367 -0.004612996 0.0049734274 0.0036010258 0.0009587435 
55 -0.00436675 -0.0045893453 0.0041905856 -0.0020227341 -0.0041118963 0.003962376 0.000105348416 0.0034955665 0.0023796195 0.00462343 0.0046041263 -0.00040367013 -0.003437317 0.002167636 0.0034082113 -0.0038467704 0.00018967874 -0.0027469688 0.0030818945 -0.0018725318 0.0011320035 0.00022499217 -0.0020509202 -0.00052664196 -0.004238225 0.00069618644 -0.0023093808 0.002700699 0.004425967 0.0020463588 0.0037176283 0.0036676312 -0.0021193915 0.0017408235 0.0014751754 -0.0018225682 -0.004039547 -0.0047620432 -0.0038502607 4.559476e-05 -0.0005840361 -0.0041342694 0.004394848 -0.0007261308 -0.0009104116 -0.004780006 0.001319781 0.00011287909 -0.003016343 0.00059950864 6.568432e-05 -0.0017526466 0.0018630782 0.002217793 0.0044503547 0.00086488435 0.0034814533 0.0011392836 -0.0012546091 0.0004751212 0.0031572646 -0.0030984168 0.004759903 0.0011562682 -0.0043455213 0.003033447 0.003011832 0.0033676764 0.0003257366 0.0008920706 -0.003283525 -3.934931e-05 -0.0010627494 -0.00095756166 -0.001830294 -0.004003613 0.0016396069 -0.0019400842 0.003577455 0.0040562255 -0.004235992 -0.0045949267 0.0030582435 0.00413916 0.0001659058 0.00036187517 0.0019767825 0.0026646582 0.00073758187 0.0031454228 -0.0017444186 0.0045173885 -0.0044930833 -0.0032692736 0.0023996434 0.004942702 0.004801859 -0.0034273153 -0.003482312 -0.004395582 
56 0.001967553 -0.0014479363 0.0004443247 -0.00203211 0.0017973394 -1.4067162e-05 -0.0012478179 0.004630046 -0.00261811 -0.0029859734 0.0038991207 -0.0009703315 -0.0032216222 -0.0018721174 -0.0028289396 0.00036874134 0.0017364174 0.0029166657 -0.0012370949 -0.0031116176 -0.0045039933 0.0021713413 0.0028381068 0.0048561683 0.0048743254 -0.003698017 -0.0006085001 -0.0013554089 0.0011097407 -0.0025613958 -0.0023136227 -0.0035717743 0.0006349259 0.0035462035 -0.0023693729 -0.0028037322 0.0038702441 0.0028675832 0.0022397302 -0.0022027057 -0.0009378344 0.0025136406 -0.002318278 -0.003614043 0.0022356985 -0.0031366409 0.00077237375 -0.0026249015 0.0017275112 0.00048363023 -0.001130213 0.00058368035 -0.0040470874 -0.0009718458 -0.0043861866 -0.00031849928 0.0038122619 -0.003417194 0.0015887516 0.0048772246 -0.0020123117 -0.00079916697 -0.0014230597 -0.0031938786 -0.004028384 0.00090492424 -0.0047376137 -0.004928864 0.0015943218 0.00084982393 -0.002847182 0.0031656716 -0.0010695644 0.00050364714 0.0038658408 -0.004333718 0.0037429342 0.00020399224 0.0033685453 -0.0032823943 0.0019551772 -0.0020546848 0.004304208 0.004240053 -0.0029346244 0.000109841116 0.0015173168 -0.0008219313 0.0026642615 -0.004885625 -0.00062130904 -0.0035385392 0.00013316236 0.0040013446 0.0034926794 -0.0019149459 0.0024266057 0.0034319852 -0.0023652858 0.0030480688 
57 0.0020433203 0.003952585 0.0047995886 -0.0025359178 -0.0036044274 0.0018271613 0.003913953 0.0038459022 -0.0029769437 -0.00015277555 0.0048875883 -0.0035320967 0.0034365952 -0.00416698 -0.0030334275 -3.747223e-05 -0.0034298336 0.00326809 0.001137861 -0.001350593 -0.0016273826 0.004004784 0.00492128 0.0020220587 -0.003059119 0.0035133623 0.004034914 0.00042521534 0.0021648258 0.0030761398 0.0047553275 -0.003787235 -0.0032764226 -0.0013735872 -0.004826109 0.0036723632 -0.0011019993 0.0028272588 -0.00080140634 -0.004075356 -0.0035501886 0.0031412104 -0.0043641524 0.00073225005 0.0034392811 0.00080622314 0.004888028 -0.004033314 -0.0007378096 -0.002334491 0.0006581275 0.003912843 -0.004564199 -0.0014510995 0.0035918131 -0.0003632293 0.0001564091 -0.0011553704 0.0002762433 0.00044657942 -0.0040770583 0.0036468264 0.003534318 0.004155133 0.0039313724 0.00497366 0.0022183163 0.0025896598 -0.0007962696 -0.00064260187 -0.0005107564 -0.0033148825 -0.0028540778 0.0016551111 -0.0038189434 0.0010335497 0.00095227733 -0.0011405426 -0.0012029631 -0.0030834978 -0.0011944477 0.0044333516 0.0011224109 0.0016362495 0.0046250476 -0.0034334683 -0.0006616451 -0.0033426206 -0.00026838202 -0.004744219 -0.0006553717 0.0031671217 0.002666202 -0.00050087925 -0.0041992427 8.929055e-05 0.0026902445 0.003494897 0.003997815 0.0020579896 
58 -0.0010882956 -0.0043114764 -0.0049967724 -0.0047909296 0.0036310013 0.0015423386 0.0038741743 0.0038156062 0.003347775 0.0037395693 0.0018461649 0.0016204412 0.0045915935 0.0034264699 -0.0019022406 -0.0014242893 0.0024428945 -0.0041478043 7.564528e-05 0.0024910788 0.0033298815 -0.0039007817 -0.0040075183 0.0028018993 -0.0013703895 -0.0018502742 0.0026789582 -0.0031896387 0.00014708005 -0.00034027873 0.0035937205 0.0012750453 -0.004625924 -0.0020188342 0.00251552 -0.0012788766 -0.0008858973 0.0034310296 0.0014957106 -0.0036068796 0.0014138846 -0.0014189291 0.003378653 0.0049110204 0.003410411 0.00051472895 0.0049526813 -0.0013058907 -0.00011906028 -0.0024592392 0.0017964696 0.004300165 0.0040724883 0.0021736245 0.0015133703 0.0049059913 -0.0046499404 0.00021531759 0.0021081506 -0.003159976 -0.0011641376 0.0015258724 0.0033686003 0.0039050123 0.004380868 0.003919523 -0.00043241307 -0.004797995 -0.002965544 -0.0027995717 -0.0014410687 0.0029228376 -0.0017306954 -0.00036370382 0.004838098 -0.0008310764 0.0009260434 -0.0011455601 0.00057190843 0.0016925381 0.0048213396 -0.004948055 -0.0013686831 -0.0035630404 -0.003432322 -0.0016340273 0.0006606253 -0.0036351955 0.004712495 0.0007193624 0.0016283141 -0.0013387739 0.0015098127 -0.0027053521 -0.0010205074 -0.0039376207 0.0037317565 -0.0047237156 0.0019059526 0.0037962766 
59 -0.0031014078 -0.0010817712 0.0018564323 -0.004708393 -0.001362015 -0.003123883 -0.0037347716 0.0021221722 -0.00064534834 0.0009553456 0.0011728061 -0.0046462803 -0.0049381405 0.0011705104 -0.004525464 0.0024943198 -0.004168286 0.00057979394 -0.0032815686 0.0048990287 -0.0014545203 -0.0045503085 -0.0014685465 0.0034248792 0.00027882867 0.0031673778 -0.0004516472 0.0029532835 -0.00022124453 -0.0039407914 -0.00026735477 0.003932749 -0.0048083947 -0.00026291423 -0.00030944403 -0.0034258873 -0.0011027975 0.0044543333 0.0029476956 0.0048585664 -0.0040065474 0.0021335548 0.0047749653 -0.00065428717 8.404721e-06 0.0018312098 -0.0018665944 0.003454782 0.004755412 0.0049272114 -0.0007118131 0.00276133 -0.0028632055 -0.0023927325 -0.0047631334 0.0016527283 -0.0017151523 -0.0036559873 -0.003254448 0.0007345276 0.00020057196 0.0022640312 -0.0025600987 0.0003590621 0.0009937435 0.0033579357 0.00441425 0.0029275138 -0.0040844786 0.0011224421 0.0012778412 0.0045363177 -0.00075427815 -0.004022248 -0.00015039276 0.003163645 0.0031998828 0.0007743938 -0.0001514121 0.0012591528 0.0011949404 0.0011862153 -0.0044760806 0.00481268 0.001354625 -0.0041903523 -0.002378416 0.0044264775 -0.003669737 -0.004901657 0.0009090905 0.0019813436 0.0016117222 -0.0048018927 0.0011588205 0.002387118 0.0029600617 0.0007459186 -0.0011031323 -0.0020065086 
60 -0.0023021644 -0.0006135972 0.0019022864 -0.004487955 -0.0011135268 -0.0024122302 -0.0044913706 -0.0042102938 0.00013218867 -0.0030493187 0.0037972573 -0.0049251323 0.0016082185 0.004982275 0.0007643597 0.0031653289 -0.0039454335 -0.0018825363 0.0049218135 -0.0037734848 0.0044490946 0.0032971827 -0.0033360892 0.0012792102 -0.0023995745 -0.0014644235 0.001174442 -0.003171919 0.0015042941 -0.0007568002 -0.0015040559 0.00447955 -0.0023412895 0.0015292275 -0.002649383 -0.0021800357 -0.004728718 -0.002912233 0.003821468 0.0031019272 0.0029222472 0.0019577825 0.0012296857 -0.0047942405 -0.00023980672 0.0029648198 -0.0031088213 0.0013468252 0.002123109 -0.0032566309 0.002382881 -0.00033101998 0.0022937786 0.00020418502 -0.00020968867 0.0014529121 -0.002995783 0.00089081423 0.0049347132 -0.0037104022 0.0024900055 0.0025816117 0.0015962385 0.0030362057 -0.0007445626 -0.0027628178 0.0011405661 -0.0011433165 -0.0016343337 0.00042957114 0.0014767577 0.0010297494 0.0039557647 0.0021696729 0.0031575095 -0.0046664374 -0.00075993966 0.0014273552 -0.004919502 -0.0027992688 -0.003061152 0.0049892142 -0.004736682 0.0028727772 -0.004955629 -0.0049008876 0.00065865275 -0.004150524 -0.00075640157 -0.0029119658 -0.0014522385 -0.0032752275 0.0033223368 0.00042276597 -0.0045029935 -0.003792728 -0.0010637809 -0.001853988 -0.0035186147 -0.0018730396 
61 0.004416975 -0.0011399377 -0.00013324199 -0.0028293298 0.0046477793 -4.977919e-05 -0.00096360315 -0.0023889244 0.003458308 0.00212907 0.0002200054 0.0038745692 -0.0020089184 0.0024271933 0.0040350175 -0.0033734725 0.0024230802 -0.0009122435 0.002893799 0.0033101095 -6.779237e-05 -0.004467912 0.0015712986 0.0033237943 0.0026886472 0.0020947987 0.004054413 0.0032709148 -0.002807879 0.0028575351 -0.0009917705 -0.002889956 0.003944873 -0.0046176407 -0.0010767481 -0.0023849325 -0.00285326 -0.0032796084 0.0012689806 -0.0020658458 0.0016731019 -0.0049692965 0.00044965185 0.003998669 -0.004932209 0.0015839208 0.003541492 0.00019793632 -0.0047418773 0.001377061 -0.004155151 -0.002423539 -0.0049544936 -0.0045712856 -7.7146105e-05 0.0028665615 0.0014633457 0.004635134 -0.0032738894 -0.000510504 0.004934145 -0.0011956238 -0.0031940434 -0.002852633 -0.003071243 -0.0024117946 0.0026986962 0.0013306718 0.000550285 -0.004014362 -0.0037784015 -0.0041272007 0.002397161 -0.0033825985 -0.004407811 0.0014294372 -0.004670418 0.0023588883 -0.00066246325 -0.00069374545 -0.001838079 0.0019228733 -0.0038101685 0.0025279014 0.0035121087 -0.0049777823 -0.002869929 -0.0040483633 -0.0036229603 -0.0022637711 -0.0038210428 0.0040684193 -0.0022344945 -0.0013095145 0.004071274 -0.001383388 -5.965121e-07 -0.0032203817 0.0024800827 0.004665981 
62 -0.0027809953 -0.001180188 0.0018439619 0.0039390987 0.0026045204 0.003161381 0.0035133436 -0.0012077456 0.003518005 -0.0041757235 -0.00044824788 -0.0015056222 -0.002408933 -0.0041799853 0.00032703392 -0.00016232673 0.0048348457 0.0044409893 0.003527238 -0.0017197572 -0.0035828762 0.0045748586 0.0047767153 -0.0007404913 -0.0041596126 -0.0010542269 0.00032656826 0.002100761 0.0027387375 0.0022730744 -0.00064813206 0.00075706793 -0.0005146316 0.0017096018 0.0049606264 0.0023743017 -0.0040674894 0.002049684 -0.004081831 -0.004658919 -0.0044150692 0.0049282406 0.0028385147 0.0038073082 0.0026913523 -0.0001451103 0.0029879268 0.0037294924 0.003524105 -0.0008423631 -0.0013617878 -0.0017430126 0.003306916 0.0010818164 0.0015616268 -0.0002578157 -0.0049089775 -0.0014861827 0.0034610126 7.75964e-05 -0.0007411293 -0.0032360666 0.0045285607 -0.00070725987 -0.0018562942 -0.0032508927 0.0007596682 -0.0015864391 0.0020871828 -0.001984027 -0.0047500557 0.0011567487 0.0033191927 0.0015525306 0.00054089027 0.0024473066 -0.0040179365 0.0049479827 0.0011695353 0.0004629884 -0.00118586 0.002318134 -0.0041349903 0.0035829367 -0.002169193 0.004763433 -0.0009448128 0.0036651334 0.0036430014 -0.0014730834 0.0014446629 -0.0004830961 0.003012931 -0.0048910263 -0.0015844756 -0.0015726292 -0.004304056 -0.0005504731 0.0036125453 -0.0048351935 
63 -0.004171866 0.00221655 0.0034142276 -0.0011481636 0.0021624048 0.0035194978 0.002163757 0.001319503 0.003015047 0.0014661234 -0.0035933845 0.0026141996 0.0014729179 -0.0045259167 0.00031384034 -0.0048104464 0.00033331197 -0.0008969717 0.002171691 -0.0020528478 0.0015737121 -0.0030585777 0.0025644666 -0.00037450902 0.00015388569 0.0017666947 0.0021173097 -0.0026572214 0.004888827 0.00093558384 0.003945497 -0.0022874093 0.0023712497 0.0037479931 -0.0010588742 -0.0012422735 -0.0028443593 0.0014842092 0.0011510169 0.0033563646 0.002221108 -0.0033546411 0.0034561027 0.0009354083 0.0010157656 -9.314343e-05 0.0015946203 0.001581409 -0.0027774822 0.0012783902 -0.002021104 0.0037797876 0.002540446 -0.0012194896 0.0033800807 -0.0039019273 0.0041963393 -0.0023603332 -0.0041806973 -0.0013506294 0.002192948 0.004017936 0.0018962594 -0.0031766193 0.0036767349 0.002884997 0.0013759793 0.0018431772 -0.0030646592 0.0045667132 -0.000616563 -0.00011256477 0.0039777644 -0.0021911447 -0.00087848306 0.0027885595 -0.0046557304 -0.0013884336 -0.0046975887 0.00044115772 0.0025959187 -8.7941065e-05 -7.190509e-05 -0.0020846385 -0.0020048134 0.00421987 0.0043170424 0.0016802889 -0.0033753584 6.6610985e-05 -0.0008441983 0.0041167587 -0.0034031742 -0.0021126634 0.00184192 0.0009658532 0.0013470035 -0.0021006023 0.0010994286 0.0011733235 
64 -0.0007457053 0.0029696152 -0.0036621767 -0.0040899506 -0.004434743 -0.0011439275 0.0011155079 0.0035055634 0.004226013 0.00443824 0.0017432803 -0.0011654061 0.0001578466 0.00396771 -0.0023236955 -0.0022374124 -0.0011919308 -0.0037074594 0.0009451206 -0.0034114248 0.0039797146 0.0022747242 0.0037209252 -0.00442965 -0.0010517319 0.0047655217 -0.0044571394 -0.0029611439 -0.002472611 0.0006593331 0.0014595324 -0.0020026488 0.003702648 0.0017764131 -0.00047940854 -0.0039919787 0.00080804527 0.0045685386 -0.0013535493 -0.0017202883 0.0029972503 -0.00074127177 0.0033396278 -0.00049428595 -0.00045654783 -0.0027736777 0.004403608 -0.0024364125 0.0012560785 -8.2250684e-05 0.0039798934 -0.0025282518 0.0005453541 -0.0014188415 0.00092365313 -0.0015928661 0.00034432486 -0.0024362528 -0.0007915022 0.0047306577 -0.0013727867 0.0036696522 -0.0049925754 -0.0008480195 0.0034902012 0.0011295336 6.37942e-05 -0.0011122017 -0.00021554297 -0.0019346075 0.0036834981 -0.00015606359 -0.00021322723 -0.0008945535 -0.0024108267 0.002533242 -0.0041832947 0.004588374 -3.464287e-05 0.004550633 -0.0034118728 0.0010294169 -0.0036947066 0.0005317079 -0.002914475 -0.0038159369 -0.0032019715 0.0006582625 -0.001098935 0.0006804364 0.0046966625 -0.0045639 -0.003213324 -0.0012339556 0.0028593708 -0.00025625527 0.0018812926 -0.0026405076 0.004212658 -7.775845e-05 
65 -0.0027319991 -0.0007820274 -0.002844467 0.0036073849 0.004091682 0.0011490728 -0.00068822224 -0.0001844 -0.0042926227 0.0033882102 0.00033502746 -0.003029387 -0.00045352057 0.0014522928 -0.0023752176 0.0005068709 -0.0025524443 -0.0025799007 0.00010121893 -0.0022555334 0.00057135895 0.004048408 -0.00021817582 -0.0036591166 0.0025002682 0.00406246 -0.0011855108 -0.0030344997 0.004702256 0.0031898785 0.0041422024 -0.0024034106 0.002580956 0.004023483 -0.0044779754 0.0021299385 0.004874425 -0.004364569 0.00020422833 -0.003420301 -0.0025643783 0.0027315966 -0.0020325065 -0.000112925656 0.00027935253 -0.0006522471 0.0028168503 -0.0013764978 0.0011631269 -0.0042098593 0.0032559708 -0.00021370547 0.0045210756 0.004902168 -0.0028921652 0.004670731 -0.0028549742 -0.0018541545 -0.0023926378 -0.004534581 -0.003729125 0.004627561 0.00090845814 -0.0017545903 0.00239655 0.0043944456 0.000937643 0.0043628393 -0.0027431701 -0.002724961 -0.0008096271 0.0030335896 0.0013194312 0.0029696068 -0.0035888646 0.0045001945 0.000899313 0.0041568736 0.0010747844 -0.0009791655 -0.0033186506 -0.0016995161 0.0026969276 0.0005283095 0.00034453906 0.0007417039 -0.003634743 0.002025247 0.0013540792 -0.0033027134 -0.003128178 0.000766878 -0.00067916885 0.001187285 -0.0025207596 0.00076646265 0.0049463483 -0.00067713065 -0.0048106746 0.0021006255 
66 0.001306647 0.002282132 0.0021018242 -0.0031772456 -0.0033754772 -0.004364604 -0.0007636915 -0.0038393396 -0.004267693 0.004359059 0.0022842316 0.0024156142 -0.0003497405 -0.0037546903 -0.0034431685 -0.0034526126 -0.0037235247 0.0020458805 0.004095895 0.0028018528 0.002431434 0.0043462953 0.0029754583 -0.003941182 -0.003001793 -0.0029975872 0.0044685854 -0.0015633707 -0.0008779918 0.0015333621 -0.002127981 0.0030484535 -0.00014166394 0.00478545 -0.004153942 -0.0031385324 -0.0032719474 -0.0032264958 -0.0045535406 -0.0009573614 0.00049196 -0.0001850212 -0.0005095047 0.0026441268 -0.0029772513 0.0011188416 0.0019436679 0.00015708664 -1.9063242e-05 0.0019742749 0.0016375287 0.0036771968 0.0009796433 -0.00059718266 0.002130981 -0.0015069533 -0.00417514 0.0033454532 -0.0008886452 0.0005943482 -0.0025860076 -0.00085886754 -8.84207e-05 -0.0047995658 -0.0021073609 0.0019926922 -0.004826962 -0.00047652144 -0.0038960534 -0.002916255 0.0025472408 -0.00024224957 -0.0019819355 0.0013827169 -0.0013595563 -0.001005067 0.0036885813 -0.0035297046 0.0009915982 -0.0021774934 0.0025686705 -0.001961903 0.0024177749 0.0022545261 0.004172302 -0.0023834603 -0.0016907412 -0.002495216 -0.0033609294 0.002120966 -0.0024763583 0.001924295 -0.004819158 0.0038277013 0.0048439438 0.0016944944 -0.0019209336 -0.0016477047 -0.0028039282 -0.004337905 
67 0.0022165994 -1.1954457e-05 -0.00021148147 0.004612268 -0.0017221451 0.00028123753 -0.0011275159 -0.0018919909 -0.0019297444 -0.0023199492 0.0020312918 0.0038033715 0.00026518945 -0.0010576909 0.0038651796 -0.0033996927 0.0019113999 -0.00083145685 0.0016886615 0.0007995544 0.0049967337 -0.0013200848 0.0044713207 -0.002839012 0.0044595255 -0.0038611535 -0.0022501014 0.003116264 0.00029176194 0.0048285723 0.0010438454 -0.0046385927 0.0013707923 0.00054887775 0.0011922554 -0.0035960586 -0.0025395618 -0.001502943 0.0044519845 0.00089667924 -0.0016242717 0.0044925055 -0.0038893973 0.0016328786 -0.0035895817 0.0044319034 0.0011698194 -0.004010711 0.0013429439 0.0016593044 -0.0003040349 0.00060164556 -0.0023486577 -0.00024171639 0.0036716452 -0.0011246293 -0.0037354622 0.0047972873 0.0019311495 0.003669466 0.003873163 0.0035142507 -0.00493276 0.0013022469 -0.0038151913 -6.6123903e-06 -0.003574734 -0.002090454 -0.004138287 0.0027797455 0.004536826 0.0035054078 0.0011767889 -0.0015268498 -0.0014239787 -0.002064684 0.0006852732 0.0033893054 0.0033135097 0.0037313765 -0.004582257 0.0036239484 0.0030812956 0.002686645 0.0045098057 0.001615758 0.00050353166 0.0015476644 0.0049784165 0.004796367 -0.0035083108 -0.00360966 -0.0010767919 -0.0040036417 -0.0035970295 -0.002573768 0.0037352797 0.0011329926 0.004900611 -0.003989763 
68 7.761642e-05 -0.0039951163 -0.0029854476 0.00260005 -0.0023084264 0.0012108232 -0.0018338202 -0.004992653 -0.003664152 -0.004884552 0.003924936 -0.0030877385 0.003936073 0.0021410813 -0.00086803036 0.0014396971 -0.0045464854 -0.0031309216 0.0034407098 0.002997592 0.0028429572 -0.0049858293 -0.0036968468 0.0009323531 -0.000670054 -0.0010907906 -0.0035410337 0.0041873036 -0.0027431238 2.8989743e-05 0.0046921475 -0.00304552 0.00468285 0.0048496565 0.00412485 7.751165e-05 -0.00040240958 0.0020228452 -0.0016352301 0.0028592646 -0.0017985373 0.00020871032 0.004294295 -0.0011505561 -0.002221499 0.0013873517 -0.00092015276 -0.0035906583 -0.0017671012 0.0023490344 -0.00078550447 0.0016090046 0.0034915581 0.0040960377 0.0007993574 0.002055836 0.002256393 -0.00456525 -0.0023861742 0.0045975214 0.004394739 0.0020628083 0.000507826 -0.003980765 -0.003068627 -0.00037581287 0.00429081 -0.0023608678 -0.0039668055 0.004444831 -0.0027740407 0.0045902506 -0.00010214606 -0.0043673394 0.004672654 -0.003205182 0.0049411543 -0.0027636874 0.0019604377 -0.0024507497 0.0039799083 0.0022492297 0.0018074275 -0.004871314 0.002049761 0.0021038363 -0.004254904 0.0033550719 0.0033557182 -0.0029420054 -0.004744994 0.00039342185 -0.0040654456 -0.0035535567 0.00013495563 0.00057303486 -0.0038860112 0.0021307697 -0.004381355 -0.003921604 
69 -0.0005900138 0.0016613533 0.0014302153 0.0029313192 0.00075501436 0.0015814314 0.0022243704 0.0034556678 -0.0047614067 0.004131617 0.0008635684 0.0020920746 -0.0048832735 0.0027486281 0.0022873823 -0.002134273 0.0033390196 -0.0037620394 -0.001135217 -0.004108087 0.0010772264 0.00014095055 -0.0010518171 9.805756e-05 -0.004407728 -0.0041694976 0.0008018515 -0.00063984236 0.0040690703 0.0029894877 -0.0013887042 0.004018331 -0.002587096 0.0028926525 -0.0005876324 0.0039858343 0.00031608203 -0.0025037623 -0.0041985204 -0.004544438 -0.0024963617 0.0021435735 0.003896702 -0.00033308193 0.0010276474 0.003325195 -0.0016617924 -0.0042056357 0.0017874734 0.00031674793 -0.004235459 -0.004859425 -0.0007865359 -0.004372631 -0.00024464494 -0.0029493235 -0.00066320784 -0.0041682646 0.0034081358 0.0016034264 0.00018840982 0.003769299 0.0014543002 -0.0049232086 0.0049933614 -0.0025282938 0.0001556403 -0.00043719774 -0.0005075489 -0.004766993 0.002241889 -0.0035950462 -0.001789022 -0.003015903 6.239861e-08 0.0040877704 0.00056999037 -0.0015602391 -0.001598503 0.004048745 0.0019534589 -0.0029421865 0.0017994796 -0.004902876 -0.00194704 -0.003055355 -0.004995695 0.00034416933 0.00054694945 0.0018405304 -0.00090248697 -0.0002519004 -0.0027005665 -0.000986015 0.00072708074 0.002016344 -0.00030985428 -0.0024901545 0.0031108959 -0.002154873 
70 -0.00172355 -0.004374836 0.002896145 -0.0013237679 0.0035540527 0.0029470893 0.00046146428 0.004716156 0.0005663121 0.004947044 0.0035441685 0.00157172 0.0005538543 -0.003649531 -0.0012448495 -0.002879734 0.003496156 -0.0037042378 0.0005183234 0.0020071971 0.0016541379 -0.00086672325 0.0043468606 0.0032961406 0.00038555916 -0.0033371006 -0.004406188 0.0028350279 0.0023713172 -0.0040875357 0.0030199243 -0.0028323208 -0.002329186 -0.0027100139 -0.0035757916 -0.0031049568 0.0038896278 0.0015066052 0.0010553044 0.0027402872 -0.00086813606 0.0025363006 0.00090654474 0.0024990295 0.003293896 -1.8538442e-05 -0.004385972 0.00043066544 0.0047809025 0.0041399496 0.0011428474 0.00094398437 -0.0037119966 -0.0015000678 3.4966506e-05 -0.0042609707 0.00377463 -0.0030391025 0.001544944 -0.0003336044 0.0016874392 -0.0047809463 0.003146911 0.00251497 -0.0011184013 0.00035414984 0.0015091109 -3.894139e-05 0.0036267089 -0.0028177828 0.0024044584 -0.0018764143 -0.0034148067 0.0014269538 -0.00049935095 0.00461292 0.0010360698 0.002004868 -0.0012245171 -0.0021339643 -0.002702276 -0.0013151807 0.0038449103 7.6807104e-05 0.00485164 -0.00059988024 -0.0023200195 -0.003569749 -0.002036534 -0.001679467 0.0027468414 -0.0041976115 -0.0007587862 -0.0019152616 0.000667152 0.0046288855 0.002360574 -0.003741303 -0.00093056634 -5.5719633e-05 
71 0.0005248133 0.0037350478 0.002016162 -0.0021154396 -0.0019894831 0.004379119 0.0022622715 0.0014809966 0.004602745 -0.004597128 0.003713932 0.00029252702 -0.0040301303 0.0002569165 -0.0023194486 0.00018198323 -0.001938716 -0.0033328866 0.00053689396 -0.0017996721 -0.003357587 0.0013472964 -0.0040455237 -0.00450828 0.0035465034 0.0012763776 0.004016729 -0.0015288175 -0.002869808 -0.004780121 -0.0034026694 -0.0020501507 0.0011574463 -0.000118606724 -0.0013549852 -0.00084108906 -6.508455e-05 -0.001274789 0.0020039058 0.0032128561 -0.0048691607 -0.0008427105 0.0020329203 -2.8556213e-05 0.0044299196 0.0033208271 0.002296159 -0.0042791152 0.002931716 0.0005590045 0.003075271 0.0012981873 0.0029995134 -0.0005896692 -0.0044836598 0.0032742824 0.0024847835 0.000700796 0.0003073532 -0.004184129 -0.0020413117 0.003250205 -0.0019095964 0.0019298694 0.00048950175 0.0048446283 0.0016168798 0.002462728 0.00046510436 0.0013148724 -0.0032478194 -0.0020940488 0.0049736276 -0.0026218337 0.00044721644 0.002474737 0.004145367 0.00133503 -0.0049597225 -0.000101277605 -0.004151777 0.0048313644 -0.0029502409 -0.0032767241 -0.003767835 -0.0041194945 0.002611165 0.0004948778 0.002452184 0.0022555743 -0.0002572597 0.0014530183 0.00034710485 0.0020057121 0.0012798845 0.0048880046 -0.002910961 0.00040080538 0.0016879272 -0.0046815276 
72 0.0007537985 -0.004929085 0.0032784687 0.0035196682 -0.00077818846 -0.0016036809 0.003925304 -0.0028177707 -0.0014119977 0.0021409541 -0.0023886578 -0.0026785636 0.00012785848 0.0048681423 -0.0023513525 -3.3981632e-05 0.004303936 0.0041587306 -0.0011777573 0.0022617127 -0.00047431467 0.004583424 -0.0008449531 0.004072791 -0.0044818562 0.0024688495 -0.00045450404 0.0012053344 -0.0042447657 -0.0017366754 0.0019432199 0.0017875237 0.0020320527 0.001400454 -0.0005009244 0.0016894271 0.0043597957 -0.0030204516 0.0014417935 0.0031894334 0.0020266795 -0.00051424094 -8.760486e-06 -0.0049451143 -0.0046656136 0.003664854 0.0023316895 0.002938481 -0.004640365 0.004723423 -0.0026971416 -0.0048446152 0.0020576697 0.0039966824 -0.0007211352 0.0024702875 -6.2752515e-05 0.003021597 -0.0016111666 -0.00058946153 -0.0048153405 0.0014257119 -0.0007161512 -0.00221654 -0.003031023 -0.0037121642 -0.0037239692 0.0037894184 -0.00202066 0.00021792576 -0.0019895178 3.6173966e-05 -0.004885346 -0.0039097625 0.00089260796 -0.0019410038 0.0024879356 0.0031771353 0.0031992542 0.0006339494 -0.0021226513 -0.0016041475 -0.0011668114 0.0043840036 0.000105791725 0.00019717589 -0.00023922324 -0.0027516459 -0.00476524 0.004233511 0.0012226133 -0.0003112997 0.00065943785 0.0033652997 0.0018717013 0.001959463 0.00096421456 0.0018127547 -0.00066661416 -0.0030277139 
73 -0.00093768165 -0.0031819982 -0.0029938614 -0.0040014214 -0.0009480319 0.0037824912 -0.004192508 0.00197102 0.0048675127 7.209601e-05 0.0046152184 -0.0031692814 -0.00085422397 0.0045697745 0.0024248292 -0.00420491 -0.0015703279 -0.0030477934 0.0038811332 0.00016057864 0.0024668113 -0.0002784175 -0.0043213586 0.0022465745 -0.0022986673 -0.0046968223 0.00029988028 0.0016337824 -0.0023739277 -0.00018696208 -0.0017515963 -0.0012408411 0.00039139995 0.0011790963 -0.003753507 -0.0018443221 0.0017886776 -0.004929191 -0.0036693262 -0.00083504757 -0.002783945 -0.00065397983 -0.0046601775 -0.0019848323 0.0027556513 0.0007499838 0.00481192 0.0014716466 -0.0046042628 -0.00313731 0.0015879343 0.0031955037 0.0022686594 0.0010641413 0.0012293123 0.0036362568 -0.0028510313 0.001768202 -0.0042744316 0.00219794 -0.0034800058 0.0028891945 0.004127303 -0.00080401497 0.0013711601 -0.0034480891 -0.00048305234 0.0015252857 -0.0036258858 -0.002388001 -0.0036372023 -0.0014510797 0.00040343683 0.00053045433 0.004847506 0.00016639056 0.0018803249 0.0006123758 -0.0025454771 -0.003669886 -0.00065325154 -0.004721201 0.0019859541 -0.0014746534 0.0037787892 -0.0013648951 0.004824251 0.004459139 0.0045248754 -0.0038338546 -0.0021081644 0.0030165017 -0.0006774012 0.002792378 0.0048188176 0.00029035518 -0.003955086 -0.0022831874 -0.001705013 -0.0005768854 
